{"ft.weight": [[0.03212746977806091, 0.015259869396686554, -0.0172423142939806, -0.0004406683146953583, -0.002283785492181778, 0.03171193599700928, -0.032440125942230225, 0.016376379877328873, -0.8100806474685669, -0.7753831744194031, -1.0045597553253174, -0.3377745449542999, -0.15385545790195465, -0.13573382794857025, -0.14701461791992188, -0.06489620357751846, -0.9582512378692627, -1.9600242376327515, -1.3069548606872559, -0.23069141805171967, -0.09063980728387833, -0.0668325275182724, -0.047658734023571014, -0.012111252173781395, -0.4631354808807373, -1.9761285781860352, -0.4059576690196991, -0.18544058501720428, -0.062067270278930664, -0.05032620206475258, -0.0377049520611763, -0.0007487619877792895, -0.2794610559940338, -0.42632102966308594, -0.1353408694267273, -0.2034355103969574, -0.04424121603369713, 0.0008075805380940437, -0.009765824303030968, -0.052377212792634964, -0.23309750854969025, -0.3740808963775635, -0.1666494756937027, -0.20180782675743103, -0.1613946408033371, -0.1009332686662674, -0.03179502114653587, -0.03671988472342491, -0.29141896963119507, -0.36990174651145935, -0.15045176446437836, -0.15490826964378357, -0.2246946543455124, -0.439540296792984, 0.01520284079015255, -0.031074827536940575, 0.018249791115522385, -0.030133182182908058, 0.02073724940419197, 0.021151382476091385, -0.01730925962328911, 0.014165084809064865, -0.00901690311729908, -0.0162407997995615, -0.7531696557998657, -0.4655131697654724, -0.7144089341163635, -0.47138965129852295, -0.5432820320129395, -0.44382086396217346, -0.2966151237487793, -0.6161068081855774, -0.6946438550949097, -0.4409537613391876, -0.6190225481987, -0.6316359043121338, -0.5193122625350952, -0.6142231822013855, -0.4576142430305481, -0.4551650583744049, -0.3755314350128174, -0.6532171368598938, -0.6124966740608215, -0.6720967292785645, -0.5216823220252991, -0.49326246976852417, -0.5566967129707336, -0.5243929624557495, -0.526870846748352, -0.9219885468482971, -0.7224324345588684, -0.6171053051948547, -0.6186505556106567, -0.6149197816848755, -0.5599343776702881, -0.5864769816398621, -0.6434903144836426, -0.4656026363372803, -0.6359415054321289, -0.5147340893745422, -0.6158154606819153, -0.6083096265792847, -0.5692486763000488, -0.5195318460464478, -0.7492330074310303, -0.6140797138214111, -0.6795642971992493, -0.5323337316513062, -0.5566984415054321, -0.5813612341880798, -0.4590011239051819, -0.5870023369789124, -0.5428385734558105, -0.7043574452400208, -0.5704755187034607, -0.44592756032943726, -0.5674863457679749, -0.5792711973190308, -0.5786376595497131, -0.5703852772712708, -0.22546623647212982, -0.4964580535888672, -0.479498952627182, -0.6546260118484497, -0.6001447439193726, -0.5163778066635132, -0.6075299978256226, -0.6771138906478882, -0.7801156640052795, -0.6012076139450073, -0.6607140898704529, -0.7655596733093262, -0.8684564828872681, -0.6422348618507385, -0.8848036527633667, -0.6223331093788147, -0.7720811367034912, -0.6898824572563171, -0.8083707690238953, -0.9833528399467468, -0.6230930089950562, -0.6665924787521362, -0.5281218886375427, -0.7066134214401245, -0.843448281288147, -0.9436354041099548, -1.0371575355529785, -0.6302303075790405, -0.7138137221336365, -0.6217035055160522, -0.6039903163909912, -0.698403000831604, -0.8203708529472351, -0.8901322484016418, -0.9016748666763306, -0.7651528120040894, -0.6987360715866089, -0.7655453681945801, -0.7723103165626526, -0.6825053691864014, -0.8045192360877991, -0.8344383835792542, -0.8370672464370728, -0.8135687708854675, -0.8913827538490295, -0.7447757124900818, -0.8184207677841187, -0.7312207221984863, -0.9058045148849487, -0.7924394011497498, -0.9158003330230713, -0.9733394384384155, -0.9265133738517761, -0.8993539810180664, -0.6635390520095825, -0.8394364714622498, -0.8971444964408875, -0.8655650019645691, -0.8454046845436096, -0.8055202960968018, -0.9622024893760681, -0.9267842769622803, -0.9942949414253235, -0.7723348140716553, -0.9969111680984497, -0.9327269792556763, -0.7510961294174194, -0.7391442060470581, -0.8220248222351074, -1.0689823627471924, -0.8889272212982178, -0.882578432559967, -1.1103036403656006, -1.1570967435836792, -1.2271560430526733, -1.1811861991882324, -1.1528370380401611, -1.1036521196365356, -1.1878604888916016, -1.1629798412322998, -1.076095461845398, -1.1275534629821777, -1.1466410160064697, -1.1809064149856567, -1.2348005771636963, -1.0601400136947632, -1.1811062097549438, -1.2090415954589844, -1.0655685663223267, -1.1543946266174316, -1.3858845233917236, -1.2492578029632568, -1.227497935295105, -1.1265383958816528, -1.0565564632415771, -1.1445820331573486, -1.2718695402145386, -1.3310959339141846, -1.433599829673767, -1.3372130393981934, -1.3059756755828857, -1.178112506866455, -1.1570699214935303, -1.1388102769851685, -1.3529232740402222, -1.2946598529815674, -1.4060169458389282, -1.4272756576538086, -1.2115086317062378, -1.169532060623169, -1.1392035484313965, -1.2576656341552734, -1.3426593542099, -1.4137505292892456, -1.3060511350631714, -1.225692868232727, -1.2110562324523926, -1.2976038455963135, -1.1995314359664917, -1.2465749979019165, -1.3784520626068115, -1.4922932386398315, -1.3597993850708008, -1.3311741352081299, -1.2284574508666992, -1.2602883577346802, -1.2448586225509644, -1.3231639862060547, -1.2938497066497803, -1.343195915222168, -1.2665724754333496, -1.318845510482788, -1.2687410116195679, -1.2161842584609985, -1.209835171699524, -1.2292752265930176, -1.9800000190734863, -1.9717110395431519, -1.9736109972000122, -1.6994811296463013, -1.9788743257522583, -1.7677570581436157, -1.9691327810287476, -1.5940073728561401, -1.9710323810577393, -1.8910210132598877, -1.6840020418167114, -1.9285690784454346, -1.9413261413574219, -1.730771541595459, -1.6027705669403076, -1.7685540914535522, -1.976362705230713, -1.8824620246887207, -1.9796850681304932, -1.8639812469482422, -1.9371861219406128, -1.4423235654830933, -1.9800000190734863, -1.9278346300125122, -1.9730480909347534, -1.9800000190734863, -1.9562839269638062, -1.9765101671218872, -1.625580906867981, -1.3006787300109863, -1.976007103919983, -1.6365890502929688, -1.9760087728500366, -1.979730248451233, -1.977820634841919, -1.9800000190734863, -1.951599359512329, -1.91286039352417, -1.9767035245895386, -1.8452417850494385, -1.950334072113037, -1.9711629152297974, -1.9580986499786377, -1.951694130897522, -1.9580966234207153, -1.884783387184143, -1.9429060220718384, -1.941742181777954, -1.9765616655349731, -1.8443323373794556, -1.9776251316070557, -1.9718787670135498, -1.9135444164276123, -1.9718676805496216, -1.965408444404602, -1.8829957246780396, -1.9800000190734863, -1.9758580923080444, -1.896890640258789, -1.8121774196624756, -1.9363319873809814, -1.964550495147705, -1.9800000190734863, -1.9336479902267456, 0.25299131870269775, 0.47634732723236084, 0.6022595167160034, 0.7724093794822693, 0.9974729418754578, 1.09136962890625, 1.1707813739776611, 1.1194884777069092, 0.1834685206413269, 0.2824898958206177, 0.38877394795417786, 0.7045150995254517, 0.9212522506713867, 1.0370583534240723, 1.0624957084655762, 1.1125019788742065, -0.306058794260025, 0.09764521569013596, 0.1889498233795166, 0.662017285823822, 0.9065496921539307, 1.0693178176879883, 1.0793116092681885, 1.1202661991119385, -1.9322038888931274, -0.6082209944725037, -0.2961916923522949, 0.6910567283630371, 0.9379959106445312, 1.035997986793518, 1.1054363250732422, 1.138355016708374, -0.16806738078594208, 0.7359704971313477, -0.5519959926605225, 0.678194522857666, 0.9429835081100464, 1.0534789562225342, 1.1025587320327759, 1.182724952697754, 0.8794471621513367, 0.759485125541687, 0.871463418006897, 0.7490167021751404, 0.9502819180488586, 1.0193965435028076, 1.1045279502868652, 1.1653637886047363, 0.2548674941062927, 0.34400317072868347, 0.8539925813674927, 0.9729804396629333, 0.9745631217956543, 1.1256791353225708, 1.0441316366195679, 1.1370470523834229, 1.2325809001922607, 0.2369149923324585, 0.994482696056366, 0.9791803956031799, 0.9829116463661194, 1.09774911403656, 1.096692442893982, 1.0631521940231323, -0.035896509885787964, -0.032530952244997025, 0.014989927411079407, -0.024081196635961533, 0.016072116792201996, 0.010732017457485199, 0.0206633061170578, -0.016855062916874886, 0.6762727499008179, -1.9782534837722778, 0.49537521600723267, 0.4733438193798065, 0.46622931957244873, 0.2620267868041992, 0.44497236609458923, 0.3076847195625305, 0.7039556503295898, 0.8586369156837463, 0.6056907176971436, 0.4562194049358368, 0.39855143427848816, 0.369600772857666, 0.3217686712741852, 0.28112921118736267, 0.7978085279464722, 1.1775728464126587, 0.6668722629547119, 0.43160897493362427, 0.2821848392486572, 0.22775186598300934, 0.20076420903205872, 0.18291063606739044, 0.7419019341468811, 1.2064735889434814, 0.6024149656295776, 0.23543237149715424, 0.2665562331676483, 0.13596267998218536, 0.1117640808224678, 0.14737652242183685, 0.17781096696853638, -1.9793189764022827, 0.278647780418396, 0.24864767491817474, 0.11603854596614838, 0.10441234707832336, 0.0427805632352829, 0.1063452810049057, 0.35743969678878784, -1.9767391681671143, 0.39981767535209656, 0.28608736395835876, 0.1027006134390831, 0.14587393403053284, 0.1217450350522995, 0.15399126708507538, -0.010974150151014328, 0.018677029758691788, 0.010899871587753296, -0.019064929336309433, 0.003334794193506241, 0.029756613075733185, -0.004305381327867508, 0.005849488079547882, 0.5148215293884277, 0.6224852800369263, 0.5071458220481873, 0.5284741520881653, 0.44632983207702637, -0.9897022843360901, 0.13004285097122192, 0.1486617773771286, 0.38374847173690796, 0.7556780576705933, 0.44357776641845703, 0.49584078788757324, 0.4954853951931, 0.45693615078926086, 0.2638782858848572, -1.0055863857269287, 0.3439805507659912, 0.4993147850036621, 0.452638179063797, 0.4958351254463196, 0.5494679808616638, 0.44463595747947693, 0.45280250906944275, -0.21221435070037842, 0.29118165373802185, 0.3771074116230011, 0.5177896618843079, 0.4289131760597229, 0.495635986328125, 0.46602368354797363, 0.39692744612693787, 0.4814014434814453, 0.5095676779747009, 0.44351938366889954, 0.5392348170280457, 0.4992324113845825, 0.553030788898468, 0.5171606540679932, 0.42771539092063904, 0.35055601596832275, 0.3195652961730957, 0.49647843837738037, 0.531905472278595, 0.39687004685401917, 0.4667931795120239, 0.4587480425834656, 0.3280371129512787, 0.39276018738746643, 0.24254637956619263, 0.2701723575592041, 0.42592307925224304, 0.38842445611953735, 0.4257388412952423, 0.2882225811481476, 0.3895440399646759, 0.030798833817243576, 0.5096526741981506, 0.2745779752731323, 0.18301278352737427, 0.024856267496943474, 0.4325259029865265, 0.13869978487491608, 0.4590431749820709, 0.37008240818977356, 0.34488174319267273, 0.5642765164375305, 0.3795282542705536, 0.4287806749343872, 0.40392157435417175, 0.40942251682281494, 0.2708151340484619, 0.07643283158540726, 0.4861435890197754, 0.34866610169410706, 0.45450064539909363, 0.39692750573158264, 0.4478026032447815, 0.34369003772735596, 0.3282659649848938, 0.309177428483963, 0.24603720009326935, 0.4801507890224457, 0.3878956735134125, 0.4596230089664459, 0.4513230621814728, 0.48008695244789124, 0.3011325001716614, 0.311380535364151, 0.3182326555252075, 0.4260600209236145, 0.4868552088737488, 0.4152301847934723, 0.4904745817184448, 0.47720980644226074, 0.417523056268692, 0.37372156977653503, 0.2959372103214264, 0.4682886004447937, 0.3369975984096527, 0.49873119592666626, 0.45913001894950867, 0.44999614357948303, 0.4181465208530426, 0.48576620221138, 0.4714343547821045, 0.308892160654068, 0.48625120520591736, 0.4357869029045105, 0.5133805274963379, 0.453518271446228, 0.40788570046424866, 0.3465459942817688, 0.2626749277114868, 0.3483802080154419, 0.33804768323898315, 0.44065144658088684, 0.39219167828559875, 0.4685690402984619, 0.3440853953361511, 0.3615964949131012, 0.43263542652130127, 0.31519615650177, 0.4234991669654846, 0.3013226091861725, 0.45861032605171204, 0.4195135831832886, 0.3185727596282959, 0.2626003623008728, 0.6723763942718506, 1.0398428440093994, 0.9011809229850769, 0.9840436577796936, 0.9245090484619141, 0.8505796194076538, 0.8833499550819397, 0.9175564646720886, 0.9095179438591003, 1.0110077857971191, 0.9749806523323059, 0.9762352705001831, 0.9578952193260193, 0.9780135750770569, 0.9068856239318848, 0.9464988112449646, 0.9214183688163757, 0.8838568925857544, 0.9130887985229492, 0.9528637528419495, 0.9294193387031555, 0.8903958201408386, 0.9377146363258362, 0.8902726769447327, 0.943313717842102, 0.9213545918464661, 0.9575667381286621, 0.9387591481208801, 0.9290962815284729, 0.8182216882705688, 0.9124000072479248, 0.8840629458427429, 0.976837694644928, 0.8740370869636536, 0.8841754794120789, 0.9323946833610535, 0.9428028464317322, 0.8529988527297974, 0.782950758934021, 0.8413176536560059, 0.9168177843093872, 0.9258390665054321, 0.8661920428276062, 0.9751455187797546, 0.8860114812850952, 0.8623049259185791, 0.799498975276947, 0.7997689247131348, 1.0154399871826172, 1.0164169073104858, 1.022402048110962, 0.9327519536018372, 0.9409375190734863, 0.8347728848457336, 0.8276402950286865, 0.848328709602356, 1.0255606174468994, 1.038352131843567, 0.9318873286247253, 0.9909121990203857, 0.8650749325752258, 0.8822914361953735, 0.8555999398231506, 0.7956799864768982, -1.2790602445602417, -1.9800000190734863, -1.83775794506073, -1.6535310745239258, -1.895439863204956, -1.9799973964691162, -1.9800000190734863, -1.198608160018921, -0.8980509638786316, -1.1047165393829346, -1.9678860902786255, -1.9799495935440063, -1.9234888553619385, 0.5198356509208679, -1.7771871089935303, 0.12992343306541443, -1.9401804208755493, -1.9735716581344604, -1.7961227893829346, -0.7613251209259033, -1.9760034084320068, -1.5928479433059692, 0.012591889128088951, -0.12931086122989655, -1.6360385417938232, -1.9800000190734863, -1.8565168380737305, 0.7718943357467651, 1.1659263372421265, -1.9692741632461548, -1.8902775049209595, -1.960919737815857, -1.979749321937561, -1.7401299476623535, 1.0859601497650146, 1.1980630159378052, 1.1098889112472534, 1.042582392692566, -1.3758383989334106, 1.3351670503616333, -1.6852630376815796, -0.1980341672897339, 0.5346581935882568, 1.0658220052719116, -1.8641571998596191, 0.4083636701107025, -1.6947710514068604, -1.9799864292144775, -1.9790652990341187, -1.322008728981018, -1.9500732421875, -1.0821481943130493, -0.7996689677238464, 0.28515052795410156, -0.28771084547042847, -0.43460264801979065, -1.9349713325500488, -0.030607102438807487, -0.44998717308044434, -1.0476033687591553, -1.662246584892273, 0.9890862703323364, 1.0118293762207031, 1.082947850227356, 0.2721116244792938, 0.8317456245422363, 0.7498340010643005, 0.7246531248092651, 0.6757094264030457, 0.6492985486984253, -1.9425381422042847, -0.6673495769500732, 0.8141785264015198, 0.7773472666740417, 0.7633883953094482, 0.6992825865745544, 0.7493892312049866, 0.7028102874755859, -1.90219247341156, 0.640826940536499, 0.8359670639038086, 0.8833434581756592, 0.7879295349121094, 0.6899969577789307, 0.7929672002792358, 0.7340065836906433, 0.7394861578941345, 0.5011661052703857, 0.8106046319007874, 0.8878325819969177, 0.8156278729438782, 0.7849732041358948, 0.7052024006843567, 0.6791070699691772, 0.5954657793045044, 0.4532671868801117, 0.8628199696540833, 0.8602637052536011, 0.8879542350769043, 0.717932403087616, 0.6158794164657593, 0.5784363150596619, 0.5451371073722839, 0.4922036826610565, 0.7917847037315369, 0.7958571910858154, 0.6903631687164307, 0.6783515214920044, 0.567611038684845, 0.49675360321998596, 0.44471320509910583, 0.37346869707107544, 0.7073043584823608, 0.7267236709594727, 0.7138428688049316, 0.6163678765296936, 0.5710263252258301, 0.46894925832748413, 0.40687206387519836, 0.31065699458122253, -1.9730066061019897, 0.47118592262268066, 0.6272788047790527, 0.5258194208145142, 0.4566384255886078, 0.45182299613952637, 0.3587902784347534, 0.35864073038101196], [0.027785755693912506, 0.025924313813447952, -0.02639179676771164, 0.02665090560913086, -0.02518722601234913, 0.029443979263305664, -0.028138279914855957, 0.020786188542842865, -0.2921825051307678, -0.35014811158180237, -0.1944137066602707, -0.12264975905418396, 0.21187447011470795, 0.010181430727243423, 0.07715889066457748, 0.0742579847574234, -0.48011696338653564, -0.2883787751197815, -0.3481171727180481, -0.16047921776771545, 0.10442846268415451, -0.005409253761172295, 0.12069924175739288, 0.05691647529602051, -0.9869204163551331, -0.06498198956251144, -0.30689913034439087, -0.16560737788677216, 0.0932721421122551, -0.005402429960668087, 0.13934332132339478, 0.0692530944943428, -0.048190370202064514, -0.8682286739349365, -0.20630702376365662, -0.2969115972518921, -0.022151270881295204, -0.009854570031166077, 0.0416901521384716, -0.004088215064257383, 0.37680792808532715, -0.24880632758140564, 0.5174279808998108, -0.20539064705371857, 0.20441408455371857, 0.007700346410274506, -0.058427248150110245, -0.061565469950437546, 0.5183169841766357, -1.4814783334732056, 0.9414339661598206, -1.0668954849243164, 0.548632025718689, 0.061355799436569214, -0.23870553076267242, -0.23377299308776855, -0.02196085825562477, 0.012817233800888062, 0.008443545550107956, -0.006230132654309273, 0.0348326712846756, 0.014250744134187698, 0.005686167627573013, -0.03083008900284767, -0.5161312818527222, -0.241642564535141, -0.5534026622772217, -0.3995490074157715, -0.4979439973831177, -0.31393593549728394, -0.20577296614646912, -0.43482089042663574, -0.4735587537288666, -0.4437043368816376, -0.5084167718887329, -0.29764071106910706, -0.3653795123100281, -0.4297473728656769, -0.23991163074970245, -0.4023466408252716, 0.0215105339884758, -0.5465832352638245, -0.3243812322616577, -0.48547637462615967, -0.238150954246521, -0.43462079763412476, -0.38475432991981506, -0.31086233258247375, -0.18633629381656647, -0.7256135940551758, -0.15814781188964844, -0.6371577978134155, -0.34821948409080505, -0.38583406805992126, -0.16499847173690796, -0.3310616612434387, -0.5341143012046814, -0.5972684621810913, -0.4964601397514343, -0.3709626793861389, -0.3605559468269348, -0.3351733982563019, -0.2865266799926758, -0.3702426254749298, 0.17466036975383759, -0.31606072187423706, -0.7922175526618958, -0.7974065542221069, -0.4024689495563507, -0.29889562726020813, -0.3880133032798767, -0.26153504848480225, -0.32900622487068176, -0.8766653537750244, -0.5279603004455566, -0.5119315981864929, -0.8473683595657349, -0.48996615409851074, -0.040880512446165085, 0.03636760264635086, -1.3313151597976685, -0.30979204177856445, -1.483061671257019, -0.5206905007362366, -0.4587800204753876, 0.14568780362606049, -0.19217424094676971, 0.011270948685705662, -0.9447905421257019, -0.24167141318321228, -0.4306057095527649, -0.3131512701511383, -0.4901987314224243, -0.27294042706489563, -0.33735358715057373, -0.3220537006855011, -0.25320759415626526, -0.593214213848114, -0.45634153485298157, -0.4301007390022278, -0.2044617235660553, -0.5034065842628479, -0.4590718448162079, -0.6845853328704834, -0.029194096103310585, -0.4882175326347351, -0.33169862627983093, -0.27541622519493103, -0.5093876719474792, -0.38045936822891235, -0.43788209557533264, -0.29495564103126526, -0.8663626313209534, -0.14702452719211578, 0.07125377655029297, -0.4493277668952942, -0.3846752941608429, -0.292921781539917, -0.16759653389453888, -0.5779016613960266, -0.06964394450187683, -0.30642572045326233, -0.6386198401451111, -0.4226612150669098, -0.37242624163627625, -0.05846724659204483, -0.3144475817680359, -0.311601847410202, -0.055600520223379135, -0.2564956545829773, -0.49408093094825745, -0.5776594281196594, -0.3119332194328308, -0.3737430274486542, -0.41112056374549866, -0.3068949282169342, -1.1864378452301025, -0.5961617231369019, -0.3826857805252075, -0.8811364769935608, -0.731665849685669, -0.1845860481262207, -0.5467393398284912, -0.11703552305698395, -0.006365085486322641, -0.3342663645744324, -0.22067634761333466, -0.6804769039154053, -0.14839482307434082, -0.5460351705551147, -0.18232212960720062, -0.5404868125915527, -0.12190157920122147, -0.13107848167419434, -0.2276967316865921, -0.24079324305057526, -0.14631901681423187, -0.24353712797164917, -0.2582417130470276, -0.30473026633262634, -0.08534613996744156, -0.2294914424419403, -0.18447136878967285, -0.3884013593196869, -0.11704358458518982, -0.34822046756744385, -0.42115041613578796, -0.3592643737792969, 0.04610437527298927, -0.04456024616956711, 0.07653702050447464, -0.2575511932373047, -0.17144553363323212, -0.20419080555438995, -0.23470523953437805, -0.22160500288009644, 0.35144296288490295, 0.2221219837665558, 0.1395697146654129, -0.12656806409358978, -0.055898066610097885, -0.22232310473918915, -0.20075467228889465, -0.316992849111557, 0.051459114998579025, -0.06476391106843948, -0.3049982488155365, -0.3902621269226074, -0.3746931254863739, -0.21273426711559296, -0.379512220621109, -0.2723982632160187, -0.039327140897512436, -0.21793055534362793, -0.3175050616264343, -0.5452681183815002, -0.5139427185058594, -0.4466976225376129, -0.4866587221622467, -0.3868253529071808, -0.17211928963661194, -0.24983319640159607, -0.09392745047807693, -0.3115130066871643, -0.19136273860931396, -0.2942798435688019, -0.18876159191131592, -0.27184030413627625, -0.17637187242507935, -0.508002758026123, -0.08329536020755768, -0.2639786899089813, -0.2588331401348114, -0.22689701616764069, -0.3026151657104492, -0.28497740626335144, -0.9764369130134583, -0.9952157735824585, -1.1013805866241455, -1.0421031713485718, -1.0009020566940308, -0.8561075925827026, -1.2699302434921265, -1.2311667203903198, -0.8926436901092529, -1.0411126613616943, -1.0782384872436523, -1.055491328239441, -0.8496199250221252, -1.1642916202545166, -1.1159000396728516, -1.1039175987243652, -0.7715609073638916, -0.8978005647659302, -0.8799076080322266, -0.9991714358329773, -1.0406146049499512, -0.9683173894882202, -1.1426317691802979, -1.1404178142547607, -0.5630903840065002, -0.8415302038192749, -0.6101758480072021, -0.8613957762718201, -0.9990518093109131, -0.990156888961792, -1.0138554573059082, -1.1171135902404785, -0.846839964389801, -0.6616002321243286, -1.1292978525161743, -0.8974599242210388, -0.8071321249008179, -0.8397417068481445, -1.2102501392364502, -1.0591915845870972, -0.8589990139007568, -1.0424401760101318, -1.9544613361358643, -0.8846747875213623, -0.6998692750930786, -1.0620825290679932, -0.9048553705215454, -1.2009637355804443, -1.2211633920669556, -1.126508116722107, -0.8526452779769897, -1.1732254028320312, -0.8531732559204102, -0.8467849493026733, -0.9882674813270569, -1.0260448455810547, -0.7976093292236328, -1.2549986839294434, -0.6193423271179199, -1.6365714073181152, -0.6645070314407349, -1.0084879398345947, -0.4771779179573059, -0.8639870285987854, 0.2686190903186798, 0.4585982859134674, 0.4283283054828644, 0.33505579829216003, 0.1657753735780716, 0.24720072746276855, 0.08819229900836945, 0.001076777116395533, 0.49224087595939636, 0.4125577509403229, 0.42762720584869385, 0.37210485339164734, 0.39893677830696106, 0.17862072587013245, 0.18408292531967163, 0.20137855410575867, 0.5533092617988586, 0.5493444800376892, 0.6086268424987793, 0.5192176699638367, 0.29388174414634705, 0.31516528129577637, 0.13897700607776642, -0.09369790554046631, 0.23997867107391357, 0.45768216252326965, 0.6139677166938782, 0.5158933997154236, 0.5092061161994934, 0.18440723419189453, -0.028746144846081734, -0.22491669654846191, 1.0313631296157837, 0.4409177303314209, 0.2826610803604126, 0.4996025264263153, 0.06398387253284454, 0.14504770934581757, -0.08434095978736877, 0.08155737072229385, 0.8629396557807922, -1.9772635698318481, 0.40705689787864685, 0.3283239006996155, 0.7592617869377136, 0.020348604768514633, -0.1764303296804428, -0.38867440819740295, 1.1022447347640991, -1.979665994644165, 0.29948922991752625, -0.5815948247909546, 0.7930224537849426, -1.8491814136505127, 0.6601147651672363, 0.2934325337409973, 1.433954119682312, 0.46552637219429016, -1.8755666017532349, 0.3605414927005768, 1.016605257987976, 1.0303791761398315, -1.0851813554763794, 0.5344523787498474, 0.0161435529589653, 0.03170894831418991, -0.00794064998626709, -0.01361541636288166, -0.014480100944638252, -0.005523307248950005, 0.004633862525224686, 0.025635309517383575, 0.7849891781806946, -0.3319394588470459, 0.47092074155807495, 0.35863664746284485, 0.7984932065010071, 0.20006702840328217, 0.24404583871364594, 0.4841141402721405, 0.408090740442276, 0.8033949136734009, 0.5624308586120605, 0.45289331674575806, 0.17766173183918, -0.06819786876440048, -0.08914222568273544, -0.06764988601207733, 0.5081303715705872, 0.6824584007263184, 0.43582355976104736, 0.17408838868141174, 0.13256101310253143, 0.03521765395998955, 0.15442807972431183, 0.007050000596791506, 0.6549148559570312, 1.082306146621704, 0.35576382279396057, 0.1209661141037941, 0.05691772699356079, 0.03615224361419678, 0.03587332367897034, 0.007920056581497192, 0.4021311104297638, 0.3365311324596405, 0.220461905002594, 0.10736966133117676, 0.08553419262170792, 0.018927134573459625, 0.08033738285303116, 0.07005970925092697, 0.16785939037799835, 0.21219246089458466, 0.2374204844236374, 0.11174581199884415, 0.08202531188726425, -0.02180331014096737, 0.08875547349452972, 0.03780997917056084, 0.02362823486328125, 0.015011228621006012, -0.022386714816093445, 0.007732011377811432, 0.008498810231685638, -0.020560551434755325, -0.016070004552602768, -0.03539644181728363, 0.2901391088962555, 1.1463582515716553, 0.8565806746482849, 0.8366028070449829, -1.9066792726516724, 0.28877145051956177, 1.3344122171401978, 0.33593425154685974, 0.5638132691383362, 0.6703416705131531, 0.7994762659072876, 0.4191700220108032, 0.580416202545166, 0.4839499592781067, 0.5658302903175354, 0.3129982352256775, 0.49054691195487976, 0.7856232523918152, 0.7018182873725891, 0.5978642106056213, 0.6361093521118164, 0.3864777386188507, 0.3452954590320587, 0.4298017919063568, 0.44479408860206604, 0.45055174827575684, 0.5545750856399536, 0.5939120054244995, 0.389329195022583, 0.3235267698764801, 0.2819247245788574, -0.08122693747282028, 0.20388305187225342, 1.187362790107727, 0.3208519518375397, 0.48509201407432556, 0.35084471106529236, 0.20644086599349976, 0.2682220935821533, 0.2133302539587021, 0.5649823546409607, 0.6800329685211182, 0.5685637593269348, 0.4383637309074402, 0.36797818541526794, 0.3069919943809509, 0.1612522006034851, 0.2670469582080841, 0.6133102774620056, 0.39323726296424866, 0.6396704316139221, 0.38692837953567505, 0.30527380108833313, 0.3160698413848877, 0.23795616626739502, 0.12208503484725952, 0.7674674391746521, 0.4332672953605652, 0.5286200642585754, 0.43207892775535583, 0.3095029890537262, 0.05505529046058655, 0.22335851192474365, -0.23790712654590607, 0.9290884733200073, 0.38795217871665955, 0.22543351352214813, 0.313406378030777, 0.5970746874809265, 0.4097117781639099, -0.7363106608390808, 0.39100319147109985, 0.6308623552322388, 0.8558174967765808, 0.23451220989227295, 0.531169056892395, 0.5497516989707947, 0.4777786135673523, 0.23269249498844147, 0.3605106770992279, 0.4048498570919037, 0.7610077857971191, 0.816135823726654, 0.6937212944030762, 0.6000152826309204, 0.38132017850875854, 0.3358742296695709, 0.17475572228431702, -0.3087373673915863, 0.6207721829414368, 0.721777617931366, 0.6822085380554199, 0.4090132713317871, 0.2720489203929901, 0.4131988286972046, 0.30007460713386536, 0.2697599530220032, 0.8915404081344604, 0.4982854425907135, 0.4668562412261963, 0.5305616855621338, 0.33989158272743225, 0.46705570816993713, 0.3974606692790985, 0.5168173313140869, 0.4460231065750122, 0.5593729019165039, 0.5662781596183777, 0.4596117436885834, 0.4611845314502716, 0.2907435894012451, 0.422426700592041, 0.6550048589706421, 0.305507630109787, 0.5954668521881104, 0.39315086603164673, 0.4253295958042145, 0.47579795122146606, 0.5471820831298828, 0.33189260959625244, 0.0856250673532486, -1.7745028734207153, 0.30097678303718567, 0.4495466947555542, 0.40017884969711304, 0.4217665195465088, 0.6133957505226135, 0.5232319831848145, 0.5977230072021484, 0.7313355207443237, 0.6549853086471558, 0.6318619251251221, 0.7251729369163513, 0.883632481098175, 0.7117488384246826, 0.6125863194465637, 0.6911460757255554, 0.7543574571609497, 0.7598356604576111, 0.6384972333908081, 0.6862450242042542, 0.746658444404602, 0.7383307814598083, 0.7173280715942383, 0.5737465620040894, 0.6876124143600464, 0.563499391078949, 0.6029746532440186, 0.6498793959617615, 0.7714442610740662, 0.8040529489517212, 0.6498675346374512, 0.7518343329429626, 0.5598735213279724, 0.7453593015670776, 0.3836178481578827, 0.6558289527893066, 0.519338071346283, 0.3319563865661621, 0.441477507352829, 0.9978274703025818, 0.6377021074295044, 0.6161925792694092, 0.46814844012260437, 0.42328086495399475, 0.32542023062705994, 0.5235669612884521, 0.42470988631248474, 0.6014230847358704, 0.21609701216220856, 0.7068843841552734, 0.5562787055969238, 0.5555920004844666, 0.45523351430892944, 0.5372251868247986, 0.41015931963920593, 0.7118663191795349, 0.38268765807151794, 0.4925134479999542, 0.3874960243701935, 0.4936854839324951, 0.47600218653678894, 0.4795148968696594, 0.33691689372062683, 0.5562835931777954, 0.43385738134384155, 0.47679898142814636, 0.46541357040405273, 0.5302845239639282, 0.46676668524742126, 0.38859573006629944, 0.43671900033950806, 1.295130968093872, 0.6372107267379761, 0.866246223449707, 1.1716340780258179, 0.38806527853012085, 0.9997125864028931, 1.447280764579773, 0.8327364325523376, 1.0892757177352905, 0.9937708973884583, 1.0199882984161377, 1.1061094999313354, 0.5447074174880981, 1.1438961029052734, 1.1350759267807007, 1.1311492919921875, 0.8613956570625305, 1.0977911949157715, 1.2778160572052002, 1.1343365907669067, 1.1048247814178467, 1.1339161396026611, 1.171807050704956, 0.8633904457092285, 0.8482182621955872, 0.8000200390815735, 1.3214099407196045, 1.1918859481811523, 1.169041633605957, 1.1494191884994507, 1.1026053428649902, 1.1601276397705078, 1.1163227558135986, 1.117340087890625, 1.1080816984176636, 1.128265380859375, 1.0613876581192017, 1.1538844108581543, 1.085254430770874, 0.94117271900177, 1.2446339130401611, 1.0951212644577026, 1.3130451440811157, 1.1821832656860352, 1.2047159671783447, 1.1240452527999878, 1.1471961736679077, 1.1150819063186646, 1.2800822257995605, 0.8720576763153076, 1.0819400548934937, 0.9974796772003174, 1.135250449180603, 1.170027494430542, 1.1933282613754272, 1.2744823694229126, 1.1089808940887451, 1.0626381635665894, 1.0529968738555908, 1.0583293437957764, 1.110067367553711, 1.1424510478973389, 1.0627754926681519, 1.1770349740982056, -0.07071959972381592, 1.607218623161316, -1.9800000190734863, -1.1217378377914429, 0.5310254693031311, 0.6094089150428772, 0.7380011081695557, -1.9627679586410522, 1.1587228775024414, 1.4874762296676636, 0.8713410496711731, 0.4139578342437744, 0.13692988455295563, 0.47290492057800293, 0.656486451625824, -0.3896697163581848, 1.2121466398239136, 1.1172361373901367, 0.96852046251297, 0.6661006808280945, 0.5155450701713562, 0.11783382296562195, -0.40977567434310913, 0.5539717674255371, 0.9844338893890381, 0.8854194283485413, 1.0047563314437866, 0.7544600367546082, -0.042255837470293045, 0.15668201446533203, -0.240749791264534, 0.07503849267959595, 0.8915292620658875, 0.9809653162956238, 0.80002361536026, 0.4267788529396057, 0.2862071990966797, 0.26697707176208496, 0.5480331182479858, 0.31016018986701965, 1.1400851011276245, 0.8938922882080078, 0.8730257153511047, 0.6427780985832214, 0.5790861248970032, 0.5351411700248718, 0.4710112512111664, 0.6099058389663696, 0.8822512030601501, 0.906761884689331, 0.8566058278083801, 0.6871455311775208, 0.5884432196617126, 0.5688568353652954, 0.6417264938354492, 0.5331746935844421, 0.6245552897453308, 0.621256411075592, 0.6801144480705261, 0.66118985414505, 0.7021366357803345, 0.6447654366493225, 0.6158767938613892, 0.5517818331718445], [0.033277735114097595, -0.010548586025834084, 0.02987300604581833, 0.018028024584054947, 0.0007317401468753815, 0.03043954074382782, -0.03430422395467758, 0.034026630222797394, 0.07330720871686935, 0.0816422551870346, 0.17759765684604645, 0.16937972605228424, 0.17093628644943237, -0.8209909796714783, -0.24318206310272217, 0.09883258491754532, 0.03164130821824074, 0.09550230950117111, 0.06439200788736343, 0.008282437920570374, -0.005058663431555033, -0.04174211993813515, -0.87049800157547, 0.27111393213272095, 0.09901946038007736, 0.14279025793075562, 0.16491390764713287, 0.07004719227552414, 0.06138873100280762, -0.1087784543633461, 0.011053732596337795, -0.03235076740384102, 0.10759928822517395, 0.06344827264547348, 0.11138727515935898, 0.008618582040071487, -0.01929723471403122, 0.08912674337625504, -0.6536567211151123, -0.08397404849529266, 0.1314907670021057, 0.1003873273730278, 0.022359590977430344, -0.06325529515743256, 0.01255837082862854, -0.33342212438583374, 0.1330467164516449, 0.003630609717220068, -0.13686004281044006, -0.09512318670749664, 0.01342893298715353, 0.08516203612089157, 0.23054029047489166, 0.12511660158634186, -0.3847702741622925, -1.5032392740249634, -0.007315631955862045, -0.03376070037484169, 0.022110536694526672, -0.010271424427628517, -0.033881641924381256, -0.017675528302788734, 0.019444093108177185, 0.01908494532108307, 0.5250489711761475, 0.291055291891098, 0.24697630107402802, -0.03703946992754936, -0.05994664505124092, -0.27033331990242004, 0.20382344722747803, 0.12160342186689377, 0.27701646089553833, 0.08836136013269424, 0.18998587131500244, 0.28240060806274414, 0.11387981474399567, -0.27527719736099243, -0.466952383518219, 0.2397332489490509, 0.2895095646381378, 0.18162046372890472, 0.1962662935256958, -0.01389478798955679, 0.22274404764175415, -0.42244693636894226, -0.0008336110622622073, -0.003792728763073683, 0.32579246163368225, 0.4082130789756775, 0.32499805092811584, 0.28221163153648376, 0.08231721818447113, 0.16659246385097504, 0.07016188651323318, 0.4045437276363373, 0.3485758900642395, 0.18005381524562836, 0.3035805821418762, 0.22226573526859283, 0.1834239363670349, 0.04136679694056511, -0.22640997171401978, 0.2748689353466034, 0.5417982935905457, 0.5180193185806274, 0.25140881538391113, 0.2267880141735077, 0.21759282052516937, 0.5667737722396851, -0.09604701399803162, 0.47469234466552734, 0.3641091585159302, -0.42669248580932617, 0.16611069440841675, 0.9636279940605164, 0.8349334597587585, 0.29895174503326416, 0.14153261482715607, 0.13552062213420868, -0.08370795100927353, 0.21902577579021454, 0.05838605761528015, 0.13695581257343292, 1.3955107927322388, -0.04803464189171791, -0.14561058580875397, -0.3066214919090271, 0.32412946224212646, 0.2586568295955658, 0.31055498123168945, 0.6306453347206116, -0.07695446163415909, 0.3279134929180145, 0.14520326256752014, 0.2506811320781708, -0.17896327376365662, 0.19567637145519257, 0.34000086784362793, 0.36577367782592773, 0.32129961252212524, -0.8403438329696655, 0.16877339780330658, 0.24621790647506714, 0.32931968569755554, 0.27335530519485474, 0.3427828550338745, 0.2767133414745331, 0.027597006410360336, 0.2543705403804779, -0.5100045204162598, 0.35547348856925964, 0.2087259143590927, 0.5937108993530273, 0.36660370230674744, 0.1832161545753479, 0.3698924481868744, 0.02487359754741192, 0.478699654340744, -0.08777894079685211, 0.2816547155380249, 0.34422534704208374, 0.3739039897918701, 0.2404438704252243, 0.19135427474975586, 0.6060867309570312, -0.2089230716228485, 0.5274620652198792, 0.6153725981712341, 0.30586370825767517, 0.26376596093177795, 0.18721100687980652, 0.4283662438392639, 0.3999156355857849, 0.41840660572052, 0.7239359617233276, -0.22960394620895386, 0.08917292207479477, 0.276816189289093, 0.2735096216201782, 0.26876166462898254, 0.4812423884868622, 0.12895263731479645, 0.586557149887085, -0.06161418557167053, 0.08328796923160553, 0.5906395316123962, 0.41254258155822754, 1.759202480316162, 1.9476757049560547, 0.021411379799246788, -0.0958622545003891, 0.526314377784729, 0.5317299962043762, 0.6335446238517761, 0.628995954990387, 0.41363152861595154, -0.12240564078092575, 0.15811941027641296, 0.08930230140686035, 0.5236382484436035, 0.5297561287879944, 0.6149241328239441, 0.6757548451423645, 0.22311140596866608, 0.032227128744125366, -0.16426581144332886, -0.016120286658406258, 0.334221214056015, 0.42120176553726196, 0.3447679281234741, 0.5919007658958435, 0.5421340465545654, 0.07900974899530411, 0.050530463457107544, -0.16241700947284698, 0.47049370408058167, 0.5174709558486938, 0.36093053221702576, 0.5748027563095093, 0.49033012986183167, 0.1975870430469513, -0.15734387934207916, 0.5575248599052429, 0.518413245677948, 0.7153999209403992, 0.7766723036766052, 0.6324582099914551, 0.4990549087524414, 0.4576368033885956, 0.03524084389209747, -0.2731863856315613, 0.63003009557724, 0.7429177761077881, 0.7293230891227722, 0.8652029633522034, 0.5759740471839905, 0.5859394669532776, 0.4032190144062042, 0.533328115940094, 0.39157336950302124, 0.779358446598053, 0.4208877980709076, 0.6173576712608337, 0.056110672652721405, 0.11939448863267899, 0.015039612539112568, 0.045890018343925476, -0.19451983273029327, 0.7942801117897034, 0.1788264513015747, 0.11373209953308105, 0.4535290002822876, 0.299932062625885, 0.6222268342971802, 0.023735100403428078, 1.8757418394088745, 1.7284377813339233, 1.700120210647583, 1.7590608596801758, 1.4101859331130981, 0.7457540035247803, -0.37787240743637085, 1.0910699367523193, 1.977946400642395, 1.7240413427352905, 1.6937518119812012, 1.5383074283599854, 1.4295780658721924, 0.7061344385147095, 1.0859450101852417, -1.7380114793777466, 1.709978699684143, 1.6986558437347412, 1.4524708986282349, 1.5291540622711182, 1.0724090337753296, 1.314846396446228, -1.9799630641937256, -1.9290082454681396, 1.7269816398620605, 1.7485519647598267, 1.6266146898269653, 1.4054814577102661, 1.215025544166565, -1.9799890518188477, -1.7742491960525513, 0.8519874215126038, 1.716331124305725, 1.6701222658157349, 1.467138648033142, 1.488296389579773, 1.1875063180923462, 1.3860747814178467, -1.849871277809143, 1.2180237770080566, 1.6815824508666992, 1.4695403575897217, 1.5600353479385376, 1.2717047929763794, 1.2419981956481934, -1.0040777921676636, 1.4294978380203247, 0.5024356245994568, 1.6025805473327637, 1.3788294792175293, 1.314705729484558, 1.7379504442214966, 0.37119945883750916, 0.7675385475158691, 1.1237473487854004, 1.1511462926864624, -1.5690523386001587, 1.35447359085083, 1.3825353384017944, -0.14022411406040192, 0.7894309759140015, 0.1916833519935608, 1.459257960319519, 1.2382071018218994, -0.8402042388916016, -1.3920063972473145, 0.10355717688798904, 1.091216802597046, 1.8239561319351196, 0.8900929689407349, 1.083793044090271, -0.1329689770936966, -1.6032260656356812, -1.4590049982070923, -1.0549613237380981, 1.1945390701293945, 1.2369688749313354, 1.7092562913894653, 0.985684871673584, 1.317472219467163, -1.8904428482055664, -1.9800000190734863, 0.921755313873291, 1.0453025102615356, 1.5774818658828735, 1.671129584312439, 1.3634235858917236, 1.0853229761123657, -1.1643548011779785, -1.9800000190734863, 0.3622753620147705, 1.8465261459350586, 1.7032829523086548, 1.8762507438659668, 1.5355907678604126, 1.6266324520111084, -1.9800000190734863, -1.5045527219772339, -0.5020697116851807, -1.0434246063232422, 0.9329522252082825, 1.2969696521759033, 1.1767191886901855, 1.5774757862091064, -1.6580395698547363, -1.921157956123352, -1.9800000190734863, -1.9295445680618286, 0.6949270367622375, -1.7289507389068604, -1.9800000190734863, -1.744315266609192, -0.8726534247398376, -1.9634490013122559, -1.6908260583877563, -1.9800000190734863, -1.9800000190734863, 0.986956000328064, -0.7576472759246826, 1.0214370489120483, -1.9674570560455322, -1.9800000190734863, -1.9659701585769653, -1.9093246459960938, -1.9483604431152344, -0.6176561117172241, -0.49357742071151733, -0.624434232711792, -0.03316713124513626, 0.03163312375545502, 0.013904064893722534, 0.012010134756565094, -0.003739450126886368, 0.0191817469894886, -0.009536638855934143, -0.010570988059043884, -0.6269151568412781, 0.049703240394592285, -0.6216849088668823, 0.2569337487220764, -0.08338462561368942, 0.3675498962402344, 0.20350712537765503, 0.7885676622390747, -0.14276167750358582, 0.15187664330005646, 0.17318525910377502, 0.2509025037288666, 0.27552345395088196, 0.24832755327224731, -0.2874002754688263, 0.26504409313201904, -0.02810676023364067, -0.053758323192596436, 0.13292965292930603, -0.028587980195879936, 0.08509955555200577, 0.05324037745594978, -0.0006832267972640693, -0.7862558960914612, -0.01924232952296734, 0.024618612602353096, -0.01191110908985138, -0.046750638633966446, 0.020230362191796303, -0.059592172503471375, -0.6985676288604736, -0.06756757199764252, -0.09182952344417572, 0.009737622924149036, -0.02370082028210163, -0.03669198229908943, -0.04788614809513092, -0.8853439092636108, -0.06294599175453186, -0.09856916964054108, -0.07194556295871735, -0.04235847666859627, 0.0012113428674638271, -0.041598983108997345, -0.4278695583343506, -0.11431851983070374, -0.002893822267651558, -0.08399784564971924, -0.013049649074673653, -0.004747606813907623, -0.02269374206662178, -0.02034754864871502, -0.013400780037045479, -0.013524282723665237, 0.013547703623771667, 0.0004621744155883789, 0.20559623837471008, -0.31513315439224243, 0.048899028450250626, 0.25841188430786133, 0.11923208087682724, -1.7277700901031494, 0.2812417447566986, 0.39619526267051697, 0.035345420241355896, -0.6038998365402222, 0.29993540048599243, 0.6037934422492981, -0.06387300789356232, 0.24927830696105957, 0.2870875298976898, 0.47443509101867676, -1.9800000190734863, 0.06626331806182861, 0.034325405955314636, 0.04883449524641037, 0.2542855441570282, -1.9800000190734863, -0.459568053483963, 0.14062240719795227, -0.38618916273117065, -0.17206726968288422, -0.23304936289787292, -0.11789321154356003, 0.13296499848365784, -0.2131759524345398, 0.0364701971411705, -0.20724979043006897, -0.22404079139232635, -0.18943007290363312, -0.1770113855600357, -0.1802680939435959, -0.15344378352165222, -0.04549151286482811, -0.4346168041229248, -0.11897789686918259, -0.1683189868927002, -0.15764634311199188, -0.17280714213848114, -0.2522123456001282, -0.1993260532617569, -0.5400461554527283, -0.23580557107925415, -0.15472304821014404, -0.2586795687675476, -0.1060812696814537, -0.24536776542663574, -0.23841342329978943, -0.5333560109138489, -0.1818583756685257, -0.09379914402961731, -0.24850714206695557, -0.598288357257843, -0.21081912517547607, -0.19415149092674255, -0.15629123151302338, -0.32482895255088806, -0.16725797951221466, -0.283193439245224, -0.2701721489429474, -0.3402707278728485, -0.6733301281929016, -0.10232841968536377, -1.9800000190734863, 0.5404217839241028, 0.12221291661262512, 0.027319150045514107, 0.09708194434642792, -0.4393142759799957, -0.0972205102443695, 0.06960909813642502, -1.9790157079696655, 0.3501473069190979, 0.4204028844833374, 0.11730211973190308, 0.48538756370544434, -0.13174740970134735, -0.16428564488887787, -0.12449666857719421, -0.11432129144668579, 0.3245548605918884, -0.1273067146539688, 0.27801772952079773, 0.005179635249078274, -0.15758107602596283, -0.2033597230911255, -0.3595699071884155, -0.062158651649951935, -0.004116168711334467, -0.030808739364147186, -0.10288364440202713, 0.30646032094955444, -0.23079808056354523, -0.24482443928718567, -0.11354577541351318, -0.04730645567178726, -0.23559507727622986, -0.0874079093337059, -0.028249477967619896, -0.182899609208107, -0.10812868922948837, -0.2026534527540207, -0.059476468712091446, -0.14161068201065063, -0.17680491507053375, -0.12992805242538452, -0.21157562732696533, -0.16001121699810028, -0.3444162905216217, -0.07023689895868301, -0.07929249852895737, -0.10709439218044281, -0.05534617230296135, -0.10218097269535065, -0.29320767521858215, -0.04454760253429413, -0.12644851207733154, -0.1224115714430809, -0.09919466078281403, 0.1230521872639656, -0.18582777678966522, -0.19583144783973694, -0.4651232957839966, -0.11175523698329926, -0.20826317369937897, 0.0072829523123800755, 0.4539853632450104, -0.5261762142181396, -0.3490382134914398, -0.7750782370567322, -0.2974202036857605, -0.09716465324163437, -0.29955726861953735, -0.4966827630996704, -0.3310118615627289, -0.48671796917915344, -0.8445141315460205, -0.38970914483070374, -0.3965323567390442, -0.07925181835889816, -1.439683198928833, -0.31725171208381653, -0.12060175091028214, -0.31419917941093445, 0.005978580564260483, -0.5846470594406128, -0.24556796252727509, -0.42484551668167114, -0.3789416253566742, -0.3129871189594269, -0.6750938892364502, -0.4637894034385681, -0.5551540851593018, -0.6827703714370728, -0.6974549293518066, -0.5827893614768982, -0.36102575063705444, -0.27150920033454895, -0.4331999719142914, -0.21147365868091583, -0.37525323033332825, -0.24653208255767822, -0.48133474588394165, -0.3678129315376282, -0.3439386487007141, -0.33065927028656006, -0.4312474727630615, -0.40014103055000305, -0.4566303491592407, -0.6838125586509705, -0.35412248969078064, -0.42837271094322205, -0.32000523805618286, -0.42191001772880554, -0.39131301641464233, -0.15213200449943542, -0.37139222025871277, -0.3463457226753235, -0.5679498314857483, -0.42254188656806946, -0.38489988446235657, -0.351613849401474, -0.352615624666214, -0.24620525538921356, -0.31786200404167175, -0.41969549655914307, -0.487621933221817, -0.4239768981933594, -1.9800000190734863, -1.9245989322662354, 0.37739741802215576, -1.9800000190734863, 1.16941237449646, 1.3770170211791992, 1.021698236465454, 1.6832157373428345, -0.8207182288169861, 0.5485547184944153, -0.9750121235847473, 0.704632043838501, 1.4551279544830322, 1.6967021226882935, 1.4032849073410034, 1.27457594871521, -0.21512924134731293, -1.8151143789291382, -1.9800000190734863, -1.4553834199905396, 1.4081456661224365, 1.313714623451233, 1.539298176765442, 1.4538253545761108, -1.7422237396240234, -0.8470438718795776, 0.45324304699897766, 1.1526185274124146, 1.11197829246521, 1.2748265266418457, 1.3554121255874634, 1.4028913974761963, 0.44496169686317444, -0.09961821138858795, 0.6331009864807129, 0.6871074438095093, 0.7888619899749756, 0.8585854768753052, 1.1288375854492188, 1.1401079893112183, -1.499671220779419, 0.5806756019592285, 0.4594391882419586, 0.7132466435432434, 0.516782820224762, 1.0272822380065918, 0.7334705591201782, 1.0968343019485474, -1.4103457927703857, 0.26825812458992004, 0.577347993850708, 0.5122271776199341, 0.9544225931167603, 0.6586553454399109, 0.5998463034629822, 0.7147879600524902, 0.36421963572502136, 0.6476012468338013, 0.35628166794776917, 1.0462738275527954, 0.42451515793800354, 0.7176081538200378, 1.0478512048721313, 0.6618059277534485, -0.2522273659706116, -1.9396319389343262, -1.4295977354049683, 0.597978413105011, -1.9222910404205322, -0.7764993906021118, -1.9800000190734863, 0.8558544516563416, -0.09536555409431458, -0.6373767256736755, 0.1847217082977295, -1.9644057750701904, -1.9800000190734863, -1.9761497974395752, -1.9800000190734863, -0.18704329431056976, -0.45573240518569946, 0.2042032927274704, -1.8757060766220093, -1.5922162532806396, -1.684664011001587, -1.8814252614974976, -1.938921332359314, -1.9800000190734863, 0.02901790849864483, -0.20721803605556488, -1.8980326652526855, -1.9016649723052979, -1.114281415939331, -1.1643463373184204, -1.9800000190734863, 0.5769379734992981, -1.9800000190734863, -1.105118989944458, -1.6377924680709839, -1.8763400316238403, 0.7408067584037781, -1.8848991394042969, 0.6532573699951172, 0.7795437574386597, -1.9228527545928955, -1.5606868267059326, -1.9799786806106567, 0.5361356139183044, 0.47233787178993225, 0.3718593418598175, 0.46878302097320557, 0.7939705848693848, 0.22108183801174164, -0.4116073548793793, 0.5375832915306091, 0.56325364112854, 0.37032514810562134, 0.5590460300445557, 0.5956327319145203, 0.558873176574707, 0.7849910259246826, 0.6435018181800842, 0.4930045008659363, 0.5949441194534302, 0.6117633581161499, 0.6333397626876831, 0.7048783898353577, 0.7548002600669861], [-0.017267955467104912, 0.0049652159214019775, -0.03381028398871422, 0.0325394868850708, 0.019517943263053894, -0.018641924485564232, -0.018610849976539612, -0.010219719260931015, -0.20321092009544373, -0.1567467302083969, -0.17435920238494873, -0.16973388195037842, -0.10450499504804611, -0.12090292572975159, -0.10119885951280594, -0.16425321996212006, -0.22799979150295258, -0.18302027881145477, -0.270237535238266, -0.30641528964042664, -0.24243192374706268, -0.16911236941814423, -0.12868458032608032, -0.17215153574943542, -0.18941721320152283, -0.35735973715782166, -0.274905264377594, -0.5870553255081177, -0.2915405333042145, -0.28922387957572937, -0.12072781473398209, -0.20577172935009003, -0.2481294572353363, -0.18453337252140045, -0.43798524141311646, -0.3188866078853607, -0.45401033759117126, -0.22279106080532074, -0.2593519389629364, -0.1376437544822693, -0.21210764348506927, -0.4514937400817871, -0.17971734702587128, -0.534635066986084, -0.2650108337402344, -0.5073981881141663, -0.20756347477436066, -0.32317695021629333, -0.20331411063671112, -0.6640604138374329, -0.5552522540092468, -0.17870467901229858, -0.5726683735847473, -0.3795146048069, -1.4287961721420288, -0.28924092650413513, 0.017722006887197495, -0.009429920464754105, 0.014891549944877625, -0.033247824758291245, 0.004852190613746643, 0.028000250458717346, -0.02899705432355404, 0.03231450915336609, -0.5162509083747864, -0.37190866470336914, -0.38653889298439026, -0.3640391230583191, -0.2942916452884674, -0.26230156421661377, -0.3038673400878906, -0.20537137985229492, -0.2465531826019287, -0.28421780467033386, -0.41692766547203064, -0.3247731029987335, -0.36346957087516785, -0.3857076168060303, -0.2968708574771881, -0.25920891761779785, -0.3494798541069031, -0.3029554486274719, -0.34402957558631897, -0.2947525680065155, -0.40842798352241516, -0.38093438744544983, -0.3642250895500183, -0.29700538516044617, -0.3932553827762604, -0.3515634536743164, -0.36423078179359436, -0.3616692125797272, -0.30744266510009766, -0.3242259919643402, -0.34436824917793274, -0.4576108455657959, -0.38700786232948303, -0.37480074167251587, -0.34389328956604004, -0.4031207263469696, -0.3200289309024811, -0.4025713801383972, -0.31717976927757263, -0.3292712867259979, -0.3936523199081421, -0.3826124668121338, -0.3828236162662506, -0.31948381662368774, -0.35185059905052185, -0.41254478693008423, -0.4519665539264679, -0.4166352152824402, -0.29931074380874634, -0.5679983496665955, -0.3556666672229767, -0.4080800414085388, -0.3418334722518921, -0.3591868579387665, -0.3942928910255432, -0.2622745633125305, -0.4587749242782593, -0.37049001455307007, -0.21847127377986908, -0.4104974865913391, -0.41733744740486145, -0.4455808997154236, -0.5920249223709106, -0.6490456461906433, -1.7887516021728516, -0.01047966256737709, -1.940153956413269, -0.1402420550584793, -1.9453940391540527, -0.237280935049057, -1.8616676330566406, -0.17237529158592224, -0.07074900716543198, -1.7294281721115112, -0.051388178020715714, -1.8344370126724243, -0.08973047882318497, -1.936299204826355, -0.23197999596595764, -1.9239134788513184, -1.8829379081726074, -0.09743228554725647, -1.955292820930481, -0.09387301653623581, -1.9800000190734863, -0.1119689792394638, -1.930243968963623, -0.08731117099523544, -0.13525114953517914, -1.9761576652526855, -0.08760929852724075, -1.9535292387008667, -0.0485171303153038, -1.7617946863174438, -0.08984889835119247, -1.8330349922180176, -1.9707469940185547, -0.08386930823326111, -1.82229745388031, -0.12128246575593948, -1.6799761056900024, -0.05554068461060524, -1.8933905363082886, -0.11910299956798553, -0.12283878028392792, -1.9798768758773804, -0.10963212698698044, -1.883406400680542, -0.03008258156478405, -1.84984290599823, 0.009391672909259796, -1.9076385498046875, -1.9702807664871216, -0.057013798505067825, -1.8152225017547607, 0.011089561507105827, -1.728784203529358, -0.003179585561156273, -1.7385399341583252, -0.006659459322690964, -0.047052834182977676, -1.672325611114502, -0.03467313572764397, -1.7796883583068848, -0.0680733174085617, -1.6961493492126465, -0.0980624109506607, -1.8393136262893677, -0.8146923780441284, -0.7726848125457764, -0.776978611946106, -0.7807046175003052, -0.7629448771476746, -0.836473822593689, -0.8325019478797913, -0.8423216342926025, -0.8999424576759338, -0.7802842855453491, -0.8442245125770569, -0.8161359429359436, -0.8087566494941711, -0.8494740128517151, -0.8514562845230103, -0.9129626154899597, -0.781110942363739, -0.8296433687210083, -0.7731031179428101, -0.7658182978630066, -0.7473978400230408, -0.7445743680000305, -0.7322224378585815, -0.7139168381690979, -0.751205563545227, -0.8038322329521179, -0.745241641998291, -0.8413130640983582, -0.7425880432128906, -0.7297062873840332, -0.7524728178977966, -0.7284647822380066, -0.7500159740447998, -0.759198784828186, -0.7070575952529907, -0.8290172219276428, -0.7308476567268372, -0.8427545428276062, -0.7915545701980591, -0.7163551449775696, -0.7342764139175415, -0.6668947339057922, -0.7139343023300171, -0.6734514832496643, -0.7582171559333801, -0.7211330533027649, -0.7201306223869324, -0.7353193163871765, -0.6988598704338074, -0.7169411182403564, -0.6763470768928528, -0.7184197902679443, -0.6171641945838928, -0.720101535320282, -0.701884925365448, -0.6947194933891296, -0.7139999270439148, -0.783998966217041, -0.7477436661720276, -0.7688164114952087, -0.744049072265625, -0.7231284976005554, -0.8077312707901001, -0.6995869874954224, -1.9704749584197998, -1.6488701105117798, -1.072816252708435, -1.9780229330062866, -1.6136717796325684, -1.9800000190734863, -1.7587124109268188, -1.9369745254516602, -1.5555342435836792, -1.3002989292144775, -1.8976678848266602, -1.3886396884918213, -1.2681387662887573, -1.4200961589813232, -1.4838422536849976, -1.2777800559997559, -1.3077260255813599, -1.8849091529846191, -1.9688429832458496, -1.8626452684402466, -1.2564606666564941, -1.3124860525131226, -1.09598708152771, -1.5121134519577026, -1.80741286277771, -1.694346308708191, -1.4350075721740723, -1.9631904363632202, -1.2415052652359009, -1.4600775241851807, -1.2088088989257812, -1.3158409595489502, -1.7659872770309448, -1.6396397352218628, -1.3309763669967651, -1.458893895149231, -1.357675552368164, -1.2861862182617188, -1.4593760967254639, -1.6332457065582275, -1.65077805519104, -1.4579176902770996, -1.2145274877548218, -1.366762399673462, -1.2964186668395996, -1.3170242309570312, -1.3439359664916992, -1.3553388118743896, -1.2849971055984497, -1.3930294513702393, -1.2355445623397827, -1.2003246545791626, -1.1323727369308472, -1.3379743099212646, -1.2848156690597534, -1.3108234405517578, -1.4667656421661377, -1.3002742528915405, -1.053276777267456, -1.3711305856704712, -1.163645625114441, -1.2861073017120361, -1.359274983406067, -1.229401707649231, 0.1940000206232071, 0.1701679825782776, 0.19425076246261597, 0.04232839122414589, 0.07158955931663513, 0.10507867485284805, 0.24677559733390808, 0.22032496333122253, 0.11158434301614761, 0.11791925877332687, 0.08601867407560349, 0.028138067573308945, 0.14628911018371582, 0.10772000998258591, 0.1422496885061264, 0.2600858509540558, 0.16234157979488373, 0.10658083111047745, 0.05338175967335701, 0.07039809972047806, 0.11270299553871155, 0.13457471132278442, 0.12199202179908752, 0.1850428730249405, 0.17029905319213867, 0.0432216040790081, 0.1312623918056488, -0.0660698339343071, 0.15646672248840332, 0.08775649964809418, 0.11640574783086777, 0.21780307590961456, 0.042640816420316696, 0.125590518116951, -0.045886509120464325, 0.10508352518081665, 0.007597700692713261, 0.15731650590896606, 0.08239325881004333, 0.11894417554140091, 0.04828936606645584, -0.011570531874895096, 0.12525999546051025, -0.02988787554204464, 0.08896737545728683, 0.06553281098604202, 0.1456189751625061, 0.13161353766918182, -0.07447871565818787, -0.02007792703807354, -0.06501902639865875, -0.0034927011001855135, 0.01252058520913124, -0.07358935475349426, -0.10751654952764511, 0.25265201926231384, 0.2537100613117218, -0.09929115325212479, 0.00817935261875391, 0.06551442295312881, 0.06762124598026276, -0.1554766595363617, -0.006206474732607603, 0.29429954290390015, 0.00038967281579971313, 0.03520927578210831, -0.012682782486081123, 0.02700505405664444, 0.00113779678940773, 0.02260037139058113, -0.006686050444841385, -0.02011950872838497, 0.06097940728068352, -0.07961362600326538, 1.9800000190734863, -0.035072553902864456, -0.09808003157377243, -0.0714603066444397, 0.8220757246017456, -0.03862703591585159, 0.12424308061599731, -0.07110081613063812, -0.14813265204429626, -0.4812328517436981, -0.16963690519332886, -0.1513112336397171, 0.00949180219322443, -0.14868509769439697, 0.10598725825548172, 0.005904971156269312, -0.09610679000616074, -0.2798132598400116, -0.13662691414356232, -0.10377819836139679, -0.0443187840282917, -0.011732511222362518, 0.14825093746185303, 0.004898097366094589, -0.043476056307554245, -0.08674328029155731, -0.1798587143421173, 0.0070568290539085865, 0.008306075818836689, -0.048993874341249466, 0.019705334678292274, 0.05378103628754616, 0.05176563933491707, -0.1438753753900528, -0.03552702069282532, -0.029372479766607285, 0.08620984852313995, 0.012331126257777214, 0.10156497359275818, 0.04394754394888878, -0.0377294160425663, 0.05360550433397293, 0.005795695353299379, 0.0405825711786747, 0.0030250546988099813, -0.0293014794588089, 0.008647657930850983, -0.01899184100329876, -0.03324529528617859, 0.02792232483625412, 0.004760805517435074, -0.01988520473241806, 0.0010550431907176971, 0.024566594511270523, 0.2765963673591614, 0.25084641575813293, 0.08962194621562958, 0.23266443610191345, 0.10333828628063202, 0.23235982656478882, 0.005532421637326479, -0.1516209989786148, 0.11301488429307938, 0.057832494378089905, 0.010531281121075153, 0.139910489320755, 0.17396195232868195, 0.05083047226071358, 0.0624273456633091, -0.08186117559671402, 0.10477330535650253, 0.10819350928068161, 0.1358383744955063, 0.10228180140256882, 0.0797267034649849, 0.16129370033740997, 0.05916990712285042, 0.2022784799337387, 0.2728132903575897, -0.030547335743904114, 0.11855683475732803, 0.08334065228700638, 0.046585798263549805, 0.07384145259857178, 0.07736293226480484, 0.1136569231748581, 0.18986570835113525, 0.0990869477391243, 0.20410336554050446, 0.011971501633524895, 0.152533158659935, 0.10457705706357956, 0.04285969212651253, 0.17099370062351227, 0.3360651135444641, 0.23499254882335663, 0.12645764648914337, 0.25798505544662476, 0.13986659049987793, 0.20654506981372833, 0.17253458499908447, 0.01972850412130356, 0.1981544941663742, 0.45301106572151184, 0.24971233308315277, 0.2461170107126236, 0.16119922697544098, 0.25063082575798035, 0.21962757408618927, 0.08271952718496323, 0.4224716126918793, 0.21116183698177338, 0.24104027450084686, 0.24636070430278778, 0.26189252734184265, 0.15668855607509613, -0.07089813798666, 0.3658200204372406, 0.3384685814380646, 0.15094777941703796, 0.310169517993927, 0.10648515820503235, 0.34407269954681396, 0.12283878773450851, 0.4864230751991272, 0.022278737276792526, 0.13220039010047913, 0.382694274187088, 0.07231958955526352, 0.35272711515426636, 0.20393788814544678, 0.39592552185058594, 0.06516621261835098, 0.3532814085483551, 0.4129773676395416, 0.14158526062965393, 0.34898555278778076, 0.07350358366966248, 0.3499393165111542, 0.22402101755142212, 0.4803958237171173, 0.13337811827659607, 0.11753901094198227, 0.36657971143722534, 0.18458609282970428, 0.28296124935150146, 0.14762352406978607, 0.3841262459754944, 0.12828923761844635, 0.3133464753627777, 0.37462952733039856, 0.10769776254892349, 0.4528062641620636, 0.17632783949375153, 0.40560200810432434, 0.20067651569843292, 0.3811793327331543, 0.11548595130443573, 0.11857101321220398, 0.38526833057403564, 0.09714524447917938, 0.46244630217552185, 0.17933380603790283, 0.37530839443206787, 0.10657906532287598, 0.31206217408180237, 0.3536504805088043, 0.08422841131687164, 0.3638319969177246, 0.19185185432434082, 0.332375705242157, 0.12322773039340973, 0.314343124628067, 0.020129453390836716, 0.23962345719337463, 0.4850713908672333, 0.2198784500360489, 0.3495642840862274, 0.1669611632823944, 0.3712565302848816, -0.005421921145170927, 0.45101580023765564, 0.8086281418800354, 0.8055857419967651, 0.8782711029052734, 0.7389100193977356, 0.8439357876777649, 0.8075412511825562, 0.8453227877616882, 0.8161983489990234, 0.80654376745224, 0.8416352272033691, 0.8670114278793335, 0.7961516976356506, 0.835175633430481, 0.9166496396064758, 0.7851979732513428, 0.8407382369041443, 0.8622047901153564, 0.8227272629737854, 0.7958962321281433, 0.704549252986908, 0.7564175724983215, 0.786465585231781, 0.8102336525917053, 0.8295528888702393, 0.8509790301322937, 0.8079664707183838, 0.8112673163414001, 0.7878555655479431, 0.8407593369483948, 0.8288291096687317, 0.7522281408309937, 0.833628237247467, 0.9631108045578003, 0.8936581611633301, 0.9093961119651794, 0.9088081121444702, 0.9238228797912598, 0.878438413143158, 0.8335225582122803, 0.8762994408607483, 0.9348202347755432, 0.9349690675735474, 0.8556617498397827, 0.8909422755241394, 0.9284645318984985, 0.8976824879646301, 0.8366892337799072, 0.8814980387687683, 0.8650427460670471, 0.8880667686462402, 0.8706964254379272, 0.8428462147712708, 0.8443487882614136, 0.8792770504951477, 0.8403143286705017, 0.8527737259864807, 0.7792277932167053, 0.8283973336219788, 0.7951600551605225, 0.8118329048156738, 0.8014619946479797, 0.716443657875061, 0.7829803228378296, 0.8614799976348877, -1.110458254814148, -1.9646939039230347, -1.9798574447631836, -1.9781274795532227, -0.6218151450157166, -1.9694894552230835, -1.7888493537902832, -1.9800000190734863, -0.8032092452049255, -1.9738352298736572, -1.13677179813385, -0.5549997687339783, -0.9540631771087646, -0.74277263879776, -0.7975269556045532, -0.18933729827404022, -0.3256101906299591, -1.1283190250396729, -0.7946311235427856, -1.1048671007156372, -0.636323869228363, -0.7887850999832153, -1.0590392351150513, -0.2918718457221985, -1.178333044052124, -1.9616799354553223, -0.47209250926971436, -0.7077265381813049, -0.5141934156417847, -0.6551318764686584, -0.4297204911708832, -0.2820219099521637, -0.28787368535995483, -0.5358916521072388, -1.9698208570480347, -1.394732117652893, -1.9541620016098022, -1.6446903944015503, -1.392549991607666, -1.1835078001022339, -0.31321391463279724, -0.26141947507858276, -0.5837629437446594, -1.9145443439483643, -1.4057515859603882, -0.5758172869682312, -1.9723492860794067, -0.2054794728755951, -0.46177172660827637, -0.38547417521476746, -0.8425270915031433, -0.5062323212623596, -0.6519811749458313, -0.46475234627723694, -0.41668614745140076, -0.746577799320221, 0.5742298364639282, 0.01962873339653015, -0.689826488494873, -1.9666656255722046, -1.0648958683013916, -0.3892010748386383, -1.9765335321426392, -0.7582112550735474, -0.0008801366784609854, -0.021273082122206688, -1.772789478302002, 0.059618253260850906, -0.22956418991088867, -0.2881354093551636, 0.05108959227800369, -0.5892000198364258, -0.016233021393418312, 0.1202404573559761, 0.307372510433197, 0.2569822669029236, 0.27546799182891846, 0.08974870294332504, 0.42386797070503235, -0.24653413891792297, 0.3522564172744751, 0.3332395553588867, 0.3374442458152771, 0.29017359018325806, 0.20700408518314362, 0.19797846674919128, 0.14131951332092285, 0.014531261287629604, 0.15604279935359955, 0.26864179968833923, 0.27089226245880127, 0.289632648229599, 0.24759723246097565, 0.26340025663375854, 0.09267358481884003, 0.02148839645087719, 0.12436357885599136, 0.12314074486494064, 0.26230499148368835, 0.12420109659433365, 0.1561865210533142, 0.10457058250904083, 0.16282318532466888, 0.05102746561169624, 0.06046006456017494, 0.21466895937919617, 0.11448627710342407, 0.18284551799297333, 0.09526066482067108, 0.16104382276535034, 0.034563496708869934, 0.06226112321019173, 0.04255915805697441, 0.05934290960431099, 0.14142264425754547, 0.07608384639024734, 0.128348246216774, -0.023584574460983276, 0.10941293835639954, -0.042139437049627304, -0.04449747875332832, -0.10135494917631149, -0.023776516318321228, 0.07907392084598541, -0.10849655419588089, 0.04146456718444824, -0.1256488710641861, -0.1056591123342514], [0.02163241058588028, -0.008442537859082222, 0.03217300772666931, -0.011128319427371025, 0.00966581329703331, 0.02123381569981575, -0.004030488431453705, 0.002945084124803543, 0.028406960889697075, 0.014977582730352879, -0.13369424641132355, 0.06793539226055145, 0.01864231377840042, 0.026644684374332428, -0.018108496442437172, -0.02358369529247284, 0.007215276826173067, -0.014408614486455917, -0.12273174524307251, 0.025233160704374313, -0.032060254365205765, -0.030814608559012413, -0.0224087443202734, -0.02688489854335785, 0.03384390473365784, 0.17167221009731293, -0.15740875899791718, 0.10431405156850815, -0.04934948310256004, -0.028440600261092186, -0.051999375224113464, -0.023782309144735336, 0.14735247194766998, 0.08379138261079788, -1.9502617120742798, 0.027683328837156296, -0.03426896035671234, 0.007581985555589199, -0.017861511558294296, -0.021495824679732323, 0.08693995326757431, 0.25236520171165466, 0.13736924529075623, 0.12876389920711517, 0.07271935790777206, 0.06721846014261246, 0.028626784682273865, -0.029470188543200493, 0.10532097518444061, 0.1702479124069214, 0.13563355803489685, 0.24770022928714752, 0.2604110538959503, 0.12498822808265686, -0.08656519651412964, -0.6290318965911865, 0.0016471445560455322, -0.010180175304412842, -0.022643577307462692, 0.006414718925952911, -0.025855181738734245, -0.013726264238357544, 0.03219299018383026, -0.014700403437018394, 0.44352221488952637, -0.10080669075250626, 0.06792357563972473, -0.11610294133424759, -0.07281515002250671, -0.04099395126104355, -0.0996466651558876, -0.028339575976133347, -0.06737591326236725, 0.0861089825630188, -0.18303647637367249, 0.009151182137429714, -0.06814634054899216, 0.013170648366212845, -0.14414788782596588, -0.050013959407806396, -0.17399509251117706, 0.562803328037262, 0.0026238623540848494, 0.3755647540092468, -0.19651691615581512, -0.05745556578040123, -0.045194778591394424, -0.061773840337991714, 0.6522762179374695, 0.13887979090213776, -0.06152231991291046, -0.00571834621950984, 0.35993093252182007, 0.023964568972587585, -0.040389932692050934, -0.1198342815041542, 0.10999031364917755, 0.025944959372282028, 0.697030246257782, -0.020923295989632607, 0.08982504159212112, -0.11344649642705917, -0.05434644594788551, -0.12395729869604111, 0.6600642800331116, 0.14703606069087982, 0.028358137235045433, 0.07038801163434982, 0.3182627260684967, 0.018560564145445824, -0.057884249836206436, -0.23764024674892426, -0.07160419970750809, 0.6577942967414856, 0.09976484626531601, 0.5010367035865784, 0.013653742149472237, 0.011547376401722431, -0.07283158600330353, -0.045949649065732956, 0.09925518184900284, 0.5188133716583252, -0.027328014373779297, 0.3576257824897766, 0.08682506531476974, 0.011359999887645245, -1.6042656898498535, 0.09067852795124054, -0.12098974734544754, -0.0922725647687912, 0.00044689414789900184, -0.06501653790473938, -0.02685546875, -0.03213252127170563, 0.1830492466688156, -0.04440367966890335, -0.07706806808710098, 0.016407525166869164, -0.1300407350063324, 0.015533159486949444, -0.06895571947097778, 0.17981576919555664, -0.024859115481376648, 0.029266618192195892, 0.26290199160575867, -0.04854993522167206, -0.06897488236427307, -0.14752641320228577, 0.24810801446437836, -0.05461502820253372, 0.07791659235954285, -0.056950174272060394, 0.03195512667298317, 0.40910252928733826, -0.03198115527629852, 0.2631950378417969, -0.07323045283555984, 0.08396904170513153, -0.026494773104786873, 0.015072266571223736, 0.0671590194106102, 0.06696167588233948, 0.7281014919281006, 0.004570616874843836, 0.0930410847067833, -0.043737269937992096, 0.07726606726646423, 0.0287129208445549, -0.013039369136095047, 0.3524673879146576, 0.06488486379384995, 0.2701202630996704, -0.02535088174045086, 0.02463865838944912, -0.08458289504051208, -0.016150573268532753, 0.35985851287841797, 0.1099281907081604, 0.011392969638109207, 0.06890077143907547, 0.11665473133325577, -0.06926900893449783, -0.059712644666433334, -0.06498196721076965, -0.21736173331737518, 0.16863347589969635, 0.050611015409231186, 0.1638522446155548, -0.11894229799509048, 0.215026393532753, -0.17687033116817474, -0.11283336579799652, -0.14295774698257446, -0.1466016322374344, 0.04876751825213432, -0.12636852264404297, -0.1234070211648941, -0.12848098576068878, -0.1318202018737793, -0.14956453442573547, -0.1295255869626999, -0.12549638748168945, 0.017175311222672462, -0.09375181794166565, -0.1336638480424881, -0.12203551083803177, -0.1471325159072876, -0.10880468040704727, -0.11240635067224503, -0.09419109672307968, 0.014749119989573956, -0.1824445277452469, -0.20366275310516357, -0.11815296858549118, -0.15309013426303864, -0.11028901487588882, -0.14578236639499664, -0.18456077575683594, 0.06803207099437714, -0.1905425488948822, -0.18417415022850037, -0.2721256911754608, -0.17290157079696655, -0.20276400446891785, 0.009940390475094318, 0.07694116234779358, 0.09819196164608002, 0.08612709492444992, -0.013129051774740219, -0.11301379650831223, -0.0714411586523056, -0.08879602700471878, -0.0857696458697319, 0.011400281451642513, 0.06675124913454056, -0.0724196583032608, -0.03250734135508537, -0.12929794192314148, -0.16951824724674225, -0.05709245055913925, -0.03127717971801758, -0.12455783784389496, -0.0005707076052203774, -0.01599440537393093, -0.07201489806175232, -0.0892382264137268, -0.06083298102021217, -0.07326357066631317, -0.12277564406394958, -0.08874823153018951, 0.020406227558851242, -0.0740172266960144, -0.13493044674396515, -0.14582204818725586, -0.10964004695415497, -0.09568507224321365, 0.29111969470977783, 0.1799726039171219, 0.3840201199054718, 0.26095542311668396, 0.26115041971206665, 0.20854955911636353, 0.24258756637573242, 0.3083774447441101, 0.2878004014492035, 0.28675174713134766, 0.26141035556793213, 0.33885860443115234, 0.28192707896232605, 0.364483118057251, 0.24827010929584503, 0.3125150799751282, 0.3927629292011261, 0.28967830538749695, 0.36930564045906067, 0.26143980026245117, 0.3243189752101898, 0.2973169684410095, 0.31161779165267944, 0.33150190114974976, 0.26588934659957886, 0.4752984642982483, 0.40516871213912964, 0.35263168811798096, 0.34339988231658936, 0.31011083722114563, 0.22609154880046844, 0.2854249179363251, 0.40070176124572754, 0.5242457985877991, 0.5782856941223145, 0.46671655774116516, 0.37127915024757385, 0.2859809100627899, 0.3142930865287781, 0.325754314661026, 0.348623126745224, 0.4330771863460541, 0.5214765071868896, 0.5177794098854065, 0.3852289021015167, 0.49831798672676086, 0.39353761076927185, 0.31631121039390564, 0.3420068919658661, 0.36990976333618164, 0.3511331379413605, 0.39400243759155273, 0.4087302088737488, 0.3312544822692871, 0.40432941913604736, 0.5104272961616516, 0.34477365016937256, 0.42025119066238403, 0.36454227566719055, 0.35474663972854614, 0.3921688199043274, 0.48614248633384705, 0.5045565366744995, 0.4388926327228546, 0.6023954749107361, 0.7639678120613098, 0.7380385398864746, 0.7022557258605957, 0.6943886876106262, 0.6869030594825745, 0.7259843945503235, 0.7199434638023376, 0.682280957698822, 0.7444290518760681, 0.6659900546073914, 0.7123218774795532, 0.6968145966529846, 0.6867153644561768, 0.6735159158706665, 0.7100389003753662, 0.6552185416221619, 0.7107182145118713, 0.6837733387947083, 0.6362141370773315, 0.6958758234977722, 0.7103406190872192, 0.6809174418449402, 0.6525830030441284, 0.719165027141571, 0.7970849871635437, 0.911568820476532, 0.7891849279403687, 0.7327022552490234, 0.6830956339836121, 0.6594435572624207, 0.6934782862663269, 0.7257014513015747, 0.8500379323959351, 0.2663489282131195, 0.7648174166679382, 0.6653804779052734, 0.5409736633300781, 0.6320860385894775, 0.7750852108001709, 0.5373512506484985, 0.628064751625061, 0.581391453742981, 0.654579758644104, 0.7535867094993591, 0.4607735872268677, 0.5158208012580872, 0.7915953397750854, 0.4118359386920929, 0.8658158183097839, 0.6077989339828491, 0.7861217260360718, 0.6252754330635071, 0.5228879451751709, 0.46659669280052185, 0.8312009572982788, 0.8695024847984314, -0.874659538269043, 0.926194965839386, -1.9791709184646606, 0.24592648446559906, 0.3244355618953705, 0.48296797275543213, 0.9806559085845947, -0.03118036314845085, -0.00979132391512394, 0.003827109932899475, -0.026724889874458313, 0.01311490312218666, -0.006311660632491112, 0.019686508923768997, -0.01538253203034401, -0.2846822142601013, 0.13504658639431, -0.29616501927375793, -0.013807500712573528, -0.43731579184532166, -0.06496141105890274, 0.1536567062139511, -0.1425875425338745, 0.0020897688809782267, 0.10810954868793488, -0.013409526087343693, 0.052941299974918365, -0.08880680799484253, -0.017336823046207428, 0.007322077639400959, -0.05644534155726433, 0.045113179832696915, 0.1759534776210785, -0.011386926285922527, 0.047163888812065125, 0.06871087104082108, 0.030072446912527084, 0.05245113745331764, -0.01103152148425579, 0.050096265971660614, 0.07217998057603836, 0.6017795205116272, 0.0760193020105362, 0.06599292159080505, 0.029194388538599014, 0.08629961311817169, 0.03641768917441368, 0.09769124537706375, -1.1479820013046265, 0.3868052661418915, -1.4758200645446777, 0.09292152523994446, 0.07132349908351898, 0.0433550588786602, 0.03840794414281845, 0.007144051603972912, -0.1768234372138977, 0.3207997679710388, -0.13387209177017212, 0.10887084901332855, 0.028417110443115234, 0.03608453646302223, 0.03951168432831764, -0.020693853497505188, -0.012970825657248497, 0.02077057585120201, -0.021031469106674194, -0.007437961176037788, 0.007841948419809341, 0.034050434827804565, 0.034963518381118774, -0.011482186615467072, -0.0007758085848763585, -0.11142612248659134, -0.02011924423277378, -0.050246186554431915, 0.0022159621585160494, -0.16891132295131683, 0.18750835955142975, 0.106996089220047, -0.03902939707040787, 0.035916827619075775, 0.037545353174209595, 0.018479449674487114, 0.043138287961483, 0.007277004420757294, -0.02469363622367382, 0.022423015907406807, -0.3821718990802765, -0.06138380616903305, -0.3174344003200531, 0.0634700357913971, 0.027580616995692253, 0.02615862712264061, -0.04735362157225609, -0.3713541626930237, -0.0637284442782402, -0.043381527066230774, -0.0879310742020607, -0.1527753472328186, -0.09408225864171982, 0.02187482826411724, 0.041332390159368515, -0.053257644176483154, 0.0036399897653609514, 0.31153616309165955, 0.027030620723962784, -0.07935445010662079, 0.06228890269994736, -0.01994416117668152, 0.05423315241932869, -0.28876811265945435, 0.0040640332736074924, 0.07009738683700562, 0.045859064906835556, -0.200981006026268, -0.04330020397901535, -0.016571855172514915, 0.08862797170877457, -0.05072222277522087, -1.2668718099594116, 0.013168768025934696, -0.3627525269985199, 0.08023401349782944, 0.05851229652762413, 0.062435559928417206, 0.01621520146727562, 0.02929707057774067, -0.10383965075016022, 0.08532240241765976, -0.05269903317093849, -0.03431550785899162, -0.1156516745686531, 0.08923954516649246, 0.15767444670200348, 0.029438070952892303, 0.09502136707305908, 0.027567589655518532, 0.05482806637883186, -0.032686810940504074, -0.037315964698791504, -0.03442047908902168, -0.12432362884283066, 0.018673330545425415, -0.05108250677585602, 0.1452135443687439, -0.061775341629981995, 0.05427781119942665, 0.012858474627137184, 0.06729008257389069, -0.19583067297935486, -0.38074150681495667, 0.20396926999092102, -0.10612373799085617, 0.16247594356536865, -0.3170895278453827, 0.034546803683042526, -0.02019382268190384, 0.004678253084421158, 0.09000807255506516, -0.3390762209892273, -0.021675582975149155, -0.4454604387283325, 0.11870726943016052, -0.022450553253293037, 0.04423093795776367, -0.053272467106580734, 0.008379905484616756, -0.098081074655056, 0.09233049303293228, -0.03650493919849396, -0.05264243856072426, 0.06706452369689941, -0.008002039976418018, 0.11141141504049301, 0.12482576817274094, 0.006554397288709879, 0.05531766265630722, -0.26474571228027344, 0.12153258174657822, -0.01922452263534069, 0.016083689406514168, -0.02584163285791874, -0.466131329536438, 0.1323072463274002, -0.006783234886825085, 0.1512114256620407, -0.35025888681411743, 0.06087062135338783, -0.06569331884384155, 0.077555350959301, 0.08597145229578018, 0.08358073979616165, -0.013591321185231209, 0.023671668022871017, 0.03503785654902458, -0.25343409180641174, 0.015273738652467728, 0.0008495569345541298, 0.13532380759716034, 0.15620757639408112, 0.138923779129982, 0.1548827588558197, 0.18803256750106812, 0.1995932012796402, 0.20024961233139038, 0.1738048642873764, 0.12412553280591965, 0.14846666157245636, -0.024741485714912415, 0.1524607390165329, 0.1679961085319519, 0.20714055001735687, 0.15642395615577698, 0.16566459834575653, 0.10260361433029175, 0.14217081665992737, -0.0545944944024086, 0.15052226185798645, 0.17209573090076447, 0.1947556585073471, 0.17196547985076904, 0.1915760189294815, 0.11698729544878006, 0.0760861411690712, -0.11360601335763931, 0.06818901002407074, 0.1505926549434662, 0.16562935709953308, 0.12743201851844788, 0.12339126318693161, 0.06479775905609131, -0.0018994478741660714, 0.2645052671432495, -0.03291264921426773, -0.005048169754445553, 0.05230455473065376, 0.106744185090065, 0.10395664721727371, 0.16879920661449432, 0.16709139943122864, 0.06850628554821014, 0.0992540791630745, 0.10713231563568115, 0.08835165202617645, 0.0829540342092514, 0.093558169901371, 0.11306167393922806, 0.1909019649028778, 0.20722733438014984, 0.15362399816513062, 0.18064025044441223, 0.1776498705148697, 0.16992880403995514, 0.1479487419128418, 0.12309407442808151, 0.12751655280590057, 0.156402125954628, 0.07412160187959671, 0.12451648712158203, 0.1819937825202942, 0.13836215436458588, 0.09643857926130295, -0.29990193247795105, -0.23146724700927734, -0.8549127578735352, -0.3401353657245636, -0.32799503207206726, -0.2285880744457245, -0.3085458278656006, -0.39499711990356445, -0.24429763853549957, -0.3298623561859131, -0.23625515401363373, -0.4902864992618561, -0.21954528987407684, -0.3721392750740051, -0.30484890937805176, -0.2767016589641571, -0.33515527844429016, -0.2636088728904724, -0.31075721979141235, -0.22665159404277802, -0.5000380873680115, -0.396538645029068, -0.3875705301761627, -0.3163513243198395, -0.2736336886882782, -0.47948765754699707, -0.3171333074569702, -0.46663349866867065, -0.3279597759246826, -0.3049660623073578, -0.388150155544281, -0.3331815004348755, -0.35711780190467834, -0.35881397128105164, -0.16981102526187897, -0.4596942365169525, -0.40897470712661743, -0.3350500166416168, -0.3599184453487396, -0.27678611874580383, -0.15760834515094757, -0.2766607701778412, -0.30019354820251465, -0.40476906299591064, -0.3529275059700012, -0.3538465201854706, -0.3310052156448364, -0.3080228567123413, -0.19462426006793976, -0.24841374158859253, -0.3301348090171814, -0.2848995625972748, -0.39454135298728943, -0.36368441581726074, -0.35340091586112976, -0.4709358811378479, -0.2793324291706085, -0.3210119605064392, -0.30195918679237366, -0.38495513796806335, -0.3711322247982025, -0.32666027545928955, -0.4073476195335388, -0.3970032036304474, -1.6575580835342407, 0.6610328555107117, -1.7896056175231934, 0.4364621043205261, 0.8230696320533752, 0.7018104195594788, 0.7053874135017395, -0.9097615480422974, 0.6451693177223206, 0.7760460376739502, 0.5595308542251587, 0.9027702808380127, 0.8655637502670288, 0.9044510126113892, -0.6266360282897949, -1.5803805589675903, 0.8675934076309204, 0.8791477084159851, 0.7666229605674744, 0.8179583549499512, 0.8463622331619263, 0.8692674040794373, 0.8701345920562744, 0.5929334759712219, 0.8420265316963196, 0.508291482925415, 0.6598681807518005, 0.6993726491928101, 0.9008621573448181, 0.9459357857704163, 0.8770076632499695, 0.6867841482162476, 0.746729850769043, 0.5262855291366577, 0.7090515494346619, 0.5605778098106384, 0.8271663784980774, 0.8291921615600586, 0.8415629267692566, 0.7700017094612122, 0.8791325688362122, 0.6182970404624939, 0.4901266396045685, 0.6250910758972168, 0.7899911403656006, 0.8277161717414856, 0.7312136888504028, 0.7328532934188843, 0.7596968412399292, 0.7772749066352844, 0.695152997970581, 0.7979342937469482, 0.7851175665855408, 0.7512059807777405, 0.7998449206352234, 0.71681809425354, 0.8165251612663269, 0.7733854055404663, 0.764453649520874, 0.827594518661499, 0.8247560858726501, 0.9145606160163879, 0.7280628085136414, 0.684015691280365], [0.016895055770874023, 0.001342926174402237, 0.026995234191417694, 0.010748051106929779, -0.016240932047367096, 0.026378564536571503, -0.003704153001308441, 0.009572401642799377, 0.0539468377828598, 0.019119467586278915, -0.07898903638124466, 0.17448127269744873, -0.13177594542503357, -0.011337258853018284, -0.0023959623649716377, 0.05352165922522545, 0.044658493250608444, 0.004194754175841808, -0.06182108819484711, 0.052701037377119064, -0.09821213036775589, -0.0270217452198267, 0.021599343046545982, 0.03986341878771782, 0.08300292491912842, 0.07208072394132614, -1.338706374168396, 0.2553786635398865, -0.7168238759040833, 0.07406876236200333, 0.03837834298610687, 0.03119291551411152, 0.059877704828977585, 0.15183700621128082, 0.057537972927093506, -1.975206971168518, 0.09793625771999359, 0.11075617372989655, 0.04683137685060501, 0.06869158893823624, 0.06080574542284012, 0.14149285852909088, 0.10937710851430893, 0.023971492424607277, 0.12819725275039673, 0.07622364908456802, 0.12360920757055283, 0.07951285690069199, 0.11201322823762894, 0.18509700894355774, 0.12363190948963165, 0.3001214861869812, -0.16145941615104675, 0.18712416291236877, 0.1529003083705902, 0.252288281917572, -0.02352737821638584, 0.02143033966422081, -0.021944193169474602, 0.025113627314567566, 0.025059416890144348, 0.02044621855020523, 0.031239256262779236, 0.006030712276697159, 0.2350360006093979, 0.05881839245557785, 0.23863960802555084, 0.13698150217533112, 0.22493629157543182, 0.09829574823379517, 0.25794148445129395, 0.14367815852165222, 0.14257881045341492, 0.07528059929609299, 0.17767919600009918, -0.0143339978531003, 0.18875305354595184, 0.08838776499032974, 0.22435316443443298, 0.24708616733551025, 0.023259228095412254, 0.19314070045948029, -0.03471609577536583, 0.2624641954898834, 0.06403028219938278, 0.22516469657421112, 0.05487212538719177, 0.17154300212860107, 0.12624840438365936, 0.14331525564193726, -1.9800000190734863, 0.3819601237773895, -1.9800000190734863, 0.12756922841072083, 0.20098556578159332, 0.161246195435524, 0.1655934900045395, 0.14150342345237732, 0.2441028207540512, -0.8857129812240601, 0.22834184765815735, 0.20077669620513916, 0.14790330827236176, 0.13881658017635345, 0.2312450408935547, -0.27667486667633057, 0.19679735600948334, 0.011926068924367428, 0.08279947191476822, -0.008228040300309658, 0.1685192584991455, 0.3298574686050415, 0.11250599473714828, 0.3210597634315491, 0.027144812047481537, 0.17249545454978943, 0.10973002016544342, 0.1016516461968422, 0.2714522182941437, 0.10545490682125092, -1.6174718141555786, 0.4288060963153839, 0.05789220705628395, 0.21766427159309387, 0.2590906322002411, -0.05900602415204048, 0.21408915519714355, -0.18553289771080017, -0.01594362035393715, 0.03245473653078079, 0.15683671832084656, -0.04473736509680748, 0.11550375074148178, 0.011852526105940342, 0.13801302015781403, -0.20270375907421112, -0.4631582498550415, 0.042722661048173904, -0.019515322521328926, 0.16324685513973236, -0.030996324494481087, 0.10442885011434555, -0.1355752795934677, 0.17597447335720062, 0.19031499326229095, -0.47027522325515747, 0.13850782811641693, 0.04286199063062668, 0.1485936939716339, -0.13202810287475586, 0.12057152390480042, 0.020649366080760956, -0.011981983669102192, 0.14453373849391937, -0.9214518666267395, 0.40292951464653015, -1.885149359703064, 0.18437181413173676, 0.07329784333705902, 0.15695248544216156, 0.16470907628536224, 0.07468358427286148, 0.23018494248390198, -0.8724469542503357, 0.19168426096439362, 0.010316899977624416, 0.14847034215927124, -0.00813717395067215, -0.012393060140311718, 0.21514828503131866, -1.0712178945541382, 0.19457240402698517, -0.04965076223015785, 0.15422333776950836, -0.031692858785390854, 0.15412850677967072, 0.10662112385034561, -0.046233270317316055, 0.22152692079544067, -0.02563829906284809, 0.0764811635017395, -0.044734466820955276, 0.13729938864707947, 0.08571282774209976, -0.8596662282943726, 0.10986363142728806, 0.11776541918516159, 0.1303820163011551, -0.10380451381206512, 0.05886730179190636, -1.9531028270721436, 0.25610241293907166, 0.19118276238441467, 0.18083502352237701, 0.1419600546360016, 0.012308689765632153, 0.15005749464035034, 0.1662190854549408, 0.19057241082191467, 0.21369041502475739, 0.2007877081632614, 0.16145075857639313, 0.1921970546245575, 0.013485257513821125, 0.17555923759937286, 0.2101932317018509, 0.20115862786769867, 0.2388932853937149, 0.19508500397205353, 0.19826571643352509, 0.2316204458475113, 0.025997299700975418, 0.19557425379753113, 0.24904145300388336, 0.18439507484436035, 0.20214489102363586, 0.14647026360034943, 0.08754488080739975, -1.5312002897262573, -0.1180211529135704, -1.9751062393188477, 0.10684074461460114, 0.15406261384487152, 0.21146845817565918, 0.11924190819263458, 0.04427693039178848, 0.05117296054959297, -1.4680050611495972, 0.11347319185733795, 0.06081032752990723, 0.12018469721078873, 0.14820045232772827, 0.25144529342651367, 0.23188653588294983, 0.19710329174995422, 0.196182519197464, 0.2188267856836319, 0.24624378979206085, 0.23851020634174347, 0.2565249800682068, 0.29937195777893066, 0.1915852427482605, 0.27754801511764526, 0.19893646240234375, 0.20375706255435944, 0.18432484567165375, 0.27245232462882996, 0.21490441262722015, 0.1960040181875229, 0.2728361487388611, 0.16305305063724518, 0.11902406811714172, 0.11507962644100189, 0.18615326285362244, 0.3018035590648651, 0.24225206673145294, 0.2642948627471924, 0.3213447332382202, 0.29323020577430725, 0.24997395277023315, 0.27184849977493286, 0.2919209897518158, 0.286577969789505, 0.2234691083431244, 0.11285373568534851, 0.2011161595582962, 0.24090033769607544, 0.25605976581573486, 0.22243118286132812, 0.25000306963920593, 0.1237262412905693, 0.25549495220184326, 0.2054917961359024, 0.1209501102566719, 0.28143709897994995, 0.19224421679973602, 0.26940107345581055, 0.1726507544517517, 0.23073729872703552, 0.3360912799835205, 0.26205912232398987, 0.30977681279182434, -1.8974556922912598, 0.3162701725959778, -1.807283878326416, 0.29689091444015503, 0.3205660581588745, 0.28795725107192993, 0.23989325761795044, 0.2171867936849594, 0.20978601276874542, -0.12835712730884552, 0.22974057495594025, 0.2832164168357849, 0.2678042948246002, 0.29622089862823486, 0.33680903911590576, 0.30834612250328064, 0.282939076423645, 0.1523917317390442, 0.29498934745788574, 0.26806414127349854, 0.3177821636199951, 0.3413747251033783, 0.27543291449546814, 0.16859744489192963, 0.3789350986480713, 0.28778940439224243, 0.1916010081768036, 0.20917190611362457, 0.33225390315055847, 0.312875360250473, -1.6259645223617554, 0.2843755781650543, -1.8149125576019287, -1.9800000190734863, 0.2470419555902481, 0.3953976333141327, 0.384894996881485, 0.30140388011932373, 0.22866010665893555, 0.23740750551223755, 0.24870267510414124, 0.2703077495098114, 0.22643859684467316, 0.23696592450141907, 0.16473184525966644, 0.19928158819675446, 0.30916881561279297, 0.23430144786834717, 0.21630431711673737, 0.3011433482170105, 0.19198787212371826, 0.2631837725639343, 0.24905629456043243, 0.20483653247356415, 0.23195888102054596, 0.21200421452522278, 0.2061036229133606, 0.08517511934041977, 0.23450899124145508, 0.20196646451950073, 0.2774104177951813, 0.28082606196403503, 0.24170441925525665, 0.21924668550491333, -1.978655219078064, 0.3698507249355316, -1.4329222440719604, 0.22370684146881104, 0.3376321792602539, 0.31693071126937866, 0.3134238123893738, 0.27976006269454956, 0.2859388589859009, -1.562673807144165, 0.48077842593193054, 0.2566937208175659, 0.2739829421043396, 0.27704471349716187, -1.975431203842163, 0.26663297414779663, 0.15443046391010284, 0.26826009154319763, 0.22780543565750122, 0.37035101652145386, 0.4566846787929535, 0.2737719714641571, -0.04530280828475952, 0.18045824766159058, 0.05212121456861496, 0.17875461280345917, 0.09579705446958542, 0.5178101658821106, 0.22192595899105072, 0.2987305223941803, -1.9348406791687012, 0.25421565771102905, 0.25925469398498535, -0.2672952115535736, 0.00047531950986012816, 0.1303124874830246, 0.18549087643623352, -0.031020512804389, 0.020997755229473114, 0.017559919506311417, 0.013712983578443527, -0.01417594775557518, -0.02859683334827423, 0.005559608340263367, 0.02699883282184601, 0.014689292758703232, 0.09912458062171936, 0.14759370684623718, 0.006643586326390505, 0.20026040077209473, -0.006063043139874935, 0.17692026495933533, 0.07581036537885666, 0.14308211207389832, 0.07681410014629364, 0.02792235277593136, 0.173646479845047, -0.05306190624833107, 0.04481787607073784, -0.004507356323301792, 0.007657070644199848, -0.00821749959141016, -0.005605203099548817, 0.0372004508972168, -0.18752841651439667, 0.3003815710544586, -0.20653343200683594, 0.008198589086532593, -0.049098607152700424, -0.035812459886074066, -0.035906653851270676, 0.1417015790939331, -0.23141300678253174, 1.9565101861953735, -0.3882116377353668, 0.0664902850985527, -0.05763055384159088, -0.057829078286886215, -0.014756198972463608, -0.02336268685758114, -0.033128004521131516, 0.04555264860391617, -0.016018126159906387, -0.0953274667263031, -0.019523341208696365, -0.04861321672797203, -0.02313808910548687, -0.05218765139579773, -0.053185880184173584, 0.03537813201546669, -0.09879731386899948, -0.046919941902160645, -0.027338922023773193, -0.05059650540351868, 0.00739399716258049, -0.000653192400932312, 0.027297064661979675, 0.035193003714084625, -0.035560332238674164, -0.03125499561429024, -0.0015157535672187805, 0.005807820707559586, -0.1806989461183548, 0.07610703259706497, -0.2648497223854065, -0.11886898428201675, -0.23775015771389008, -0.10192618519067764, -0.32391250133514404, -0.3611990213394165, -0.09785294532775879, -0.2686655819416046, -0.2517812252044678, -0.34012389183044434, -0.38416579365730286, -0.3559996485710144, -0.05300811305642128, -0.21217672526836395, -0.3524043560028076, -0.20453226566314697, -0.10082715004682541, -0.0582968033850193, -0.06372030079364777, -0.2782576084136963, -0.32493889331817627, -0.1431432068347931, -0.09630740433931351, -0.06529536843299866, -0.2760322093963623, -0.08604460954666138, -0.27625903487205505, -0.08946418017148972, -0.0815560594201088, -0.1783764511346817, -0.25486111640930176, -0.26729676127433777, -0.14018087089061737, -1.766933798789978, -0.14025422930717468, -0.19140875339508057, -0.24321219325065613, -0.13353051245212555, -0.12332647293806076, -0.06404609978199005, -0.2350756675004959, -0.29702335596084595, -0.2425030916929245, -0.10169809311628342, -0.11818721145391464, -0.20835040509700775, -0.2872660756111145, -0.17687231302261353, -0.0915999785065651, -0.19362184405326843, -0.1312384307384491, -0.18595698475837708, -0.2326171100139618, -0.1364411860704422, 0.30570369958877563, -0.31110450625419617, -0.2336418181657791, -0.3106509745121002, -0.20111368596553802, -0.27009573578834534, -0.19079256057739258, -0.21763741970062256, -0.11231370270252228, -0.18878355622291565, -0.2221151888370514, -0.11171885579824448, -0.4024088978767395, -0.17541421949863434, -0.20849798619747162, 0.03551596403121948, 0.0893276110291481, -0.2415648251771927, -0.05173967778682709, -0.3339412212371826, -0.1443619579076767, -0.2978130578994751, -0.18494771420955658, -0.22515657544136047, -0.23889556527137756, 0.05840059742331505, -0.406653493642807, -0.039785079658031464, -0.2014116793870926, 0.0038668536581099033, -0.23873916268348694, -0.058718014508485794, 0.026660555973649025, -0.16144053637981415, -0.022254163399338722, -0.13672415912151337, -0.12329038977622986, -0.1965106725692749, -0.02197226881980896, -0.12363579124212265, -0.14892466366291046, -0.03776470199227333, -0.19519968330860138, -0.9409439563751221, -0.12145061790943146, 0.008997156284749508, -0.1365175098180771, -0.05647248029708862, 0.027016656473279, -0.16797074675559998, 0.342485636472702, -0.2512279152870178, 0.2773894667625427, -0.1738448441028595, -0.06668950617313385, -0.10179736465215683, -0.19589199125766754, 0.2375451922416687, -0.25053104758262634, -0.028974687680602074, -0.24557991325855255, 0.21207189559936523, -0.1243528202176094, -0.15723669528961182, 0.39570412039756775, -0.26503786444664, -0.03993683680891991, -0.18432308733463287, 0.002943493891507387, -0.21882541477680206, 0.2448929250240326, -0.1799660325050354, -0.2164343297481537, -0.140837162733078, -0.24418841302394867, -0.2083292156457901, -0.22174784541130066, -0.25207218527793884, -0.1167534813284874, -0.17685715854167938, -0.10167951881885529, -0.14589190483093262, -0.136710062623024, -0.12409023195505142, -0.11313869804143906, -0.1488262116909027, -0.10511887818574905, -0.15905891358852386, -0.08887094259262085, -0.07764770835638046, -0.09297540038824081, -0.1404525488615036, -0.1288633644580841, -0.1651414930820465, -0.12686893343925476, -0.12236249446868896, -0.17878177762031555, -0.17674922943115234, -0.2727368175983429, 0.04237119480967522, -0.21801187098026276, -0.13925108313560486, -0.1222451776266098, -0.16660676896572113, -0.02860599383711815, 0.08186975121498108, 0.08432015776634216, 1.1268976926803589, 0.09658388793468475, -0.026191039010882378, 0.0004977707867510617, -0.11307071894407272, -0.2032386064529419, -0.1770855188369751, -0.1497574895620346, 0.04489859938621521, -0.136681467294693, -0.1907377988100052, -0.1493716835975647, -0.17237688601016998, -0.2012505978345871, -0.1559828519821167, -0.13098424673080444, 0.0721958726644516, -0.1731635481119156, -0.13329660892486572, -0.13139499723911285, -0.19479955732822418, -0.19266071915626526, -0.16422422230243683, -0.13377030193805695, 0.019909435883164406, -0.09796911478042603, -0.16983385384082794, -0.17003139853477478, -0.21240335702896118, -0.30051639676094055, -0.15743926167488098, -0.28437960147857666, -0.31454145908355713, -0.14855554699897766, -0.10961738973855972, -0.15370354056358337, -0.08447692543268204, -0.053087618201971054, -0.17027422785758972, -0.14658519625663757, -0.1883159726858139, -0.04466433450579643, -0.15082977712154388, 0.019106045365333557, -0.13893663883209229, -0.11206565052270889, -0.014218020252883434, -0.17151297628879547, -0.09259996563196182, -0.14545969665050507, -0.061017587780952454, -0.14308689534664154, -0.15592144429683685, -0.12370770424604416, -0.14661945402622223, -0.11724460870027542, -0.10443684458732605, -0.17042618989944458, -0.15073736011981964, -0.17678704857826233, -0.13026800751686096, -0.10480295121669769, -0.09178992360830307, -0.06264514476060867, -1.495766282081604, -0.10323925316333771, -0.1353776603937149, -0.12039828300476074, -0.08584263920783997, -0.11510119587182999, -0.1955367922782898, -0.06647980213165283, -0.13151085376739502, -0.11632132530212402, -0.22673064470291138, -0.21356463432312012, -0.1701604723930359, -0.2030080109834671, -0.1846359223127365, -0.17655180394649506, -0.14304590225219727, -0.1898568719625473, -0.13485734164714813, -0.18966490030288696, -0.17914000153541565, -0.14304384589195251, -0.16267593204975128, -0.19059212505817413, -0.15528887510299683, -0.17444802820682526, -0.23885014653205872, -0.13659068942070007, -0.2263191193342209, -1.7735916376113892, -0.03423844277858734, 0.2999376356601715, -1.9001190662384033, 0.19951316714286804, -0.00018651396385394037, -1.678653597831726, -0.17577168345451355, 0.21455395221710205, 0.16411453485488892, 0.14420199394226074, 0.26019445061683655, 0.21350723505020142, 0.3961658775806427, 0.3853727877140045, 0.43835771083831787, -0.470813512802124, 0.3119105100631714, 0.15158456563949585, 0.2208678424358368, 0.35106131434440613, 0.2740826904773712, 0.41127336025238037, 0.4989834427833557, 0.432989239692688, 0.5530176758766174, 0.22202765941619873, 0.5784551501274109, 0.23565524816513062, 0.32470136880874634, 0.4545191824436188, 0.6118509769439697, 0.35337433218955994, 0.41623711585998535, 0.5075441002845764, 1.6297531127929688, 0.5965626239776611, 0.4810565710067749, 0.5362376570701599, 0.5594269037246704, 0.46265289187431335, 0.4593717157840729, 0.537993311882019, 0.5044410824775696, 0.6156927943229675, 0.5031532049179077, 0.5614495277404785, 0.5605704188346863, 0.4960954785346985, 0.5109456777572632, 0.5243532061576843, 0.553991973400116, 0.5146474838256836, 0.5863611698150635, 0.5673203468322754, 0.5885332822799683, 0.5894649028778076, 0.6345840692520142, 0.6563544273376465, 0.5535675287246704, 0.5971727967262268, 0.6198928356170654, 0.6233300566673279, 0.6508769989013672], [0.021365556865930557, -0.021701540797948837, 0.021870248019695282, 0.018797993659973145, -0.028457848355174065, 0.02988778054714203, -0.014897851273417473, 0.017206504940986633, 0.02883964404463768, 0.006271712016314268, 0.06182122230529785, -0.05489237979054451, 0.09416146576404572, 0.02915154956281185, 0.15676777064800262, 1.7097687721252441, 0.021904893219470978, 0.03481367602944374, 0.02291930839419365, 0.045332156121730804, 0.1026315838098526, 0.07411062717437744, 0.11786051094532013, 1.6111855506896973, 0.007394704036414623, -0.004990893416106701, 0.03681022301316261, 0.06052284687757492, 0.0924978032708168, 0.1285303682088852, 0.09201902896165848, 1.8722927570343018, 0.017692284658551216, 0.030027922242879868, 0.09622518718242645, 0.07624560594558716, 0.09829350560903549, 0.13859568536281586, 0.07417548447847366, 1.9439365863800049, 0.07510066032409668, 0.05626221373677254, 0.19493034482002258, 0.1419561356306076, 0.0747491791844368, 0.08513850718736649, 0.21910764276981354, 1.7097363471984863, 0.07995583117008209, 0.2140590101480484, 0.09388434886932373, 0.2216636836528778, 0.16310222446918488, 0.26657751202583313, 0.30301010608673096, -1.9800000190734863, -0.01409205049276352, 0.023005809634923935, -0.006012283265590668, 0.03415972739458084, 0.020432591438293457, 0.01282009482383728, 0.030586279928684235, 0.012305669486522675, 0.07753659784793854, 0.0906517505645752, 0.15047141909599304, 0.0679667666554451, 0.15318119525909424, 0.15626367926597595, 0.08493654429912567, 0.30576127767562866, 0.13179002702236176, 0.0456203818321228, 0.12097358703613281, 0.10869663208723068, 0.15883447229862213, 0.20040354132652283, 0.10716023296117783, 0.15892809629440308, 0.06951116770505905, 0.19229161739349365, 0.15942196547985077, 0.16517388820648193, 0.14503267407417297, 0.23311015963554382, 0.17471705377101898, 0.23507598042488098, 0.0922824814915657, 0.19011561572551727, 0.11011812090873718, 0.14985665678977966, 0.12706530094146729, 0.11145365983247757, 0.22554346919059753, -0.09063100814819336, 0.1570141762495041, 0.11830757558345795, 0.11057200282812119, 0.12262559682130814, 0.21592570841312408, 0.19640876352787018, 0.2380051612854004, 0.18267956376075745, 0.30812764167785645, 0.18593727052211761, 0.16025935113430023, 0.22338217496871948, 0.19768443703651428, 0.2772351801395416, 0.24523957073688507, 0.3085813820362091, 0.08116558939218521, 0.12796777486801147, 0.09939447045326233, 0.24433165788650513, 0.2260333001613617, 0.43221086263656616, 0.08837677538394928, 0.14072047173976898, 0.04725239798426628, -0.20675069093704224, 0.00458797812461853, -0.009230641648173332, 0.19576413929462433, 0.1637880802154541, -0.02449086494743824, -0.11464258283376694, 0.1166912317276001, 0.10422103106975555, 0.19783815741539001, 0.18392200767993927, 0.19229038059711456, 0.1813814640045166, 0.22100764513015747, 0.1575828492641449, 0.09001228213310242, 0.22219444811344147, 0.23319123685359955, 0.17524896562099457, 0.1838219165802002, 0.17813988029956818, 0.12477104365825653, 0.1899668574333191, 0.17376086115837097, 0.19787590205669403, 0.20113767683506012, 0.21661688387393951, 0.26651328802108765, 0.13971558213233948, 0.4161919355392456, 0.21322374045848846, 0.18172982335090637, 0.19508101046085358, 0.16220209002494812, 0.1930997371673584, 0.1685723215341568, 0.28231140971183777, 0.34373053908348083, 0.10737607628107071, 0.17099128663539886, 0.12755796313285828, 0.12527267634868622, 0.1576213389635086, 0.22050794959068298,